tree
version=v4
num_class=1
num_tree_per_iteration=1
label_index=0
max_feature_idx=60
objective=binary sigmoid:1
feature_names=Column_0 Column_1 Column_2 Column_3 Column_4 Column_5 Column_6 Column_7 Column_8 Column_9 Column_10 Column_11 Column_12 Column_13 Column_14 Column_15 Column_16 Column_17 Column_18 Column_19 Column_20 Column_21 Column_22 Column_23 Column_24 Column_25 Column_26 Column_27 Column_28 Column_29 Column_30 Column_31 Column_32 Column_33 Column_34 Column_35 Column_36 Column_37 Column_38 Column_39 Column_40 Column_41 Column_42 Column_43 Column_44 Column_45 Column_46 Column_47 Column_48 Column_49 Column_50 Column_51 Column_52 Column_53 Column_54 Column_55 Column_56 Column_57 Column_58 Column_59 Column_60
feature_infos=[4:60] [250:15945] [1:4] [1:4] [19:75] [1:4] [1:2] [0:1] [0:1] [0:1] [0:1] [0:1] [0:1] [0:1] [0:1] [0:1] [0:1] [0:1] none [0:1] [0:1] none none [0:1] none [0:1] [0:1] [0:1] [0:1] [0:1] [0:1] [0:1] [0:1] [0:1] [0:1] [0:1] [0:1] [0:1] [0:1] [0:1] [0:1] [0:1] [0:1] [0:1] [0:1] [0:1] [0:1] [0:1] [0:1] [0:1] [0:1] [0:1] [0:1] none [0:1] [0:1] [0:1] [0:1] [0:1] [0:1] [0:1]
tree_sizes=1673 1732 1716 1728 1715 1733 1721 1720 1718 1719 1739 1720 1721 1722 1739 1737 1729 1728 1728 1740 1734 1739 1737 1735 1739 1731 1739 1744 1730 1735 1719 1731 1726 1738 1739 1727 1719 1726 1727 1749 1743 1758 1742 1722 1724 1739 1731 1734 1742 1736 1734 1732 1726 1731 1728 1732 1750 1729 1742 1743 1739 1722 1740 1718 1726 1735 1748 1730 1736 1729 1734 1742 1713 1730 1734 1732 1743 1738 1735 1724 1712 1739 1718 1717 1743 1734 1745 1723 1748 1729 1733 1728 1745 1727 1741 1739 1733 1736 1735 1732 1757 1728 1756 1748 1742 1740 1735 1737 1743 1731 1749 1731 1752 1729 1749 1736 1716 1747 1735 1746 1741 1726 1730 1729 1736 1727 1733 1727 1731 1755 1745 1729 1725 1751 1738 1728 1743 1739 1734 1750 1744 1727 1748 1727 1735 1728 1739 1745 1740 1738 1744 1731 1746 1743 1737 1745 1724 1742 1721 1741 1744 1752 1746 1752 1743 1761 1742 1754 1742 1750 1735 1748 1747 1736 1753 1742 1748 1745 1762 1747 1739 1742 1755 1724 1737 1742 1759 1727 1725 1738 1737 1723 1744 1744 1745 1762 1718 1758 1753 1745

Tree=0
num_leaves=15
num_cat=0
split_feature=10 0 49 1 0 26 16 1 43 3 3 15 2 55
split_gain=58.8008 17.5731 12.2933 11.7623 13.6142 13.2202 11.218 9.26943 8.301 6.17949 6.14258 6.86361 6.43387 5.74546
threshold=1.0000000180025095e-35 11.500000000000002 1.0000000180025095e-35 967.50000000000011 13.500000000000002 1.0000000180025095e-35 1.0000000180025095e-35 6861.0000000000009 1.0000000180025095e-35 2.5000000000000004 1.5000000000000002 1.0000000180025095e-35 2.5000000000000004 1.0000000180025095e-35
decision_type=2 2 2 2 2 2 2 2 2 2 2 2 2 2
left_child=1 8 9 -3 13 -6 7 10 -1 -2 -7 12 -12 -5
right_child=2 3 -4 4 5 6 -8 -9 -10 -11 11 -13 -14 -15
leaf_value=-0.83469282081516527 -0.79967881411973518 -0.74235958834425353 -0.89624534073983542 -0.90837446968728763 -0.84020566442253086 -0.87110738777841246 -0.73702217055949204 -0.73732053552882648 -0.91151142944392682 -0.87731856809655828 -0.83054301261422536 -0.85661463370273883 -0.76344692893055111 -0.83688119623362967
leaf_weight=7.1399997770786268 5.4599998295307142 5.6699998229742041 48.929998472332954 4.8299998492002469 19.739999383687973 4.1999998688697877 7.979999750852584 4.4099998623132697 6.9299997836351395 4.8299998492002487 5.6699998229742059 4.8299998492002478 9.6599996984004974 6.7199997901916504
leaf_count=34 26 27 233 23 94 20 38 21 33 23 27 23 46 32
internal_value=-0.847298 -0.821324 -0.885798 -0.81155 -0.817315 -0.807202 -0.789475 -0.804024 -0.872529 -0.836122 -0.816099 -0.804639 -0.788263 -0.866778
internal_weight=147 87.78 59.22 73.71 68.04 56.49 36.75 28.77 14.07 10.29 24.36 20.16 15.33 11.55
internal_count=700 418 282 351 324 269 175 137 67 49 116 96 73 55
is_linear=0
shrinkage=1


Tree=1
num_leaves=15
num_cat=0
split_feature=10 15 49 2 1 7 0 1 16 44 3 14 51 37
split_gain=53.3398 15.8455 11.4495 11.2373 16.9064 12.5294 7.9263 6.9736 6.80921 6.21115 5.51408 5.05753 3.79775 3.68223
threshold=1.0000000180025095e-35 1.0000000180025095e-35 1.0000000180025095e-35 3.5000000000000004 8079.0000000000009 1.0000000180025095e-35 15.500000000000002 1745.0000000000002 1.0000000180025095e-35 1.0000000180025095e-35 2.5000000000000004 1.0000000180025095e-35 1.0000000180025095e-35 1.0000000180025095e-35
decision_type=2 2 2 2 2 2 2 2 2 2 2 2 2 2
left_child=1 3 10 4 8 12 -3 -7 9 -1 -2 13 -5 -4
right_child=2 6 11 5 -6 7 -8 -9 -10 -11 -12 -13 -14 -15
leaf_value=-0.024237178962483112 0.044383822010577716 -0.046132602796754116 -0.062253136685968602 0.059697206021501109 0.10106167887653249 0.12195174448225254 0.016548227787437943 0.056145690620786864 0.044573402465312675 0.033997078831928311 -0.028878826580906649 0.0004479447620061178 0.0074026297607293276 -0.029917584389938308
leaf_weight=18.028095498681076 5.5623306035995466 10.008531630039217 30.667998418211937 5.3105635195970526 5.1712479293346396 7.9561854600906399 10.167136013507841 8.1498353034257871 7.6897188127040854 6.1377111226320258 4.7714473903179169 4.9398118257522574 10.026862204074861 12.349529564380644
leaf_count=86 26 48 149 25 24 37 48 38 36 29 23 24 47 60
internal_value=-3.15543e-05 0.0243972 -0.0371815 0.0358723 0.0172061 0.0578531 -0.0145458 0.0886531 0.00359344 -0.00944665 0.010556 -0.0474679 0.0255096 -0.0529702
internal_weight=146.937 88.6459 58.2911 68.4702 37.0268 31.4434 20.1757 16.106 31.8555 24.1658 10.3338 47.9573 15.3374 43.0175
internal_count=700 418 282 322 175 147 96 75 151 115 49 233 72 209
is_linear=0
shrinkage=0.05


Tree=2
num_leaves=15
num_cat=0
split_feature=10 0 49 17 1 0 26 43 16 3 25 55 3 4
split_gain=48.4511 14.6948 10.6691 9.9582 7.54612 12.8909 11.7501 7.43946 5.919 6.98535 6.3401 5.1669 4.9295 4.88414
threshold=1.0000000180025095e-35 11.500000000000002 1.0000000180025095e-35 1.0000000180025095e-35 967.50000000000011 13.500000000000002 1.0000000180025095e-35 1.0000000180025095e-35 1.0000000180025095e-35 1.5000000000000002 1.0000000180025095e-35 1.0000000180025095e-35 2.5000000000000004 28.500000000000004
decision_type=2 2 2 2 2 2 2 2 2 2 2 2 2 2
left_child=1 7 12 4 -3 11 -7 -1 9 -8 -11 -6 -2 -4
right_child=2 3 13 -5 5 6 8 -9 -10 10 -12 -13 -14 -15
leaf_value=0.010923911050490006 0.041459180605576927 0.09106820673608633 -0.020201071136908937 -0.02408793287703501 -0.05884995859351308 0.0095581778405557961 -0.0075945860133177171 -0.062254039304531432 0.09601091708385745 0.04558608898659236 0.11216588507871859 0.012265531514632964 -0.027777223661785852 -0.056107261628852462
leaf_weight=7.2228261083364469 5.6544955968856794 6.0116199105978003 13.152646362781523 7.2427224665880194 4.4841509759426099 17.702417090535164 4.6580671072006252 6.6900911331176758 8.4669066071510297 16.413442596793178 4.5715075433254233 5.934150755405426 4.7141277194023132 33.833316504955292
leaf_count=34 26 27 65 34 22 83 22 33 38 76 21 28 23 168
internal_value=-5.76336e-05 0.0229541 -0.0359258 0.0316571 0.0375734 0.0324057 0.0426102 -0.024264 0.0597636 0.0477953 0.0600903 -0.0183434 0.00998063 -0.0460561
internal_weight=146.752 89.3979 57.3546 75.485 68.2423 62.2306 51.8123 13.9129 34.1099 25.643 20.985 10.4183 10.3686 46.986
internal_count=700 418 282 351 317 290 240 67 157 119 97 50 49 233
is_linear=0
shrinkage=0.05


Tree=3
num_leaves=15
num_cat=0
split_feature=10 15 49 42 1 0 26 2 0 33 14 3 1 30
split_gain=44.0524 13.5808 9.94313 9.8723 10.1806 11.0752 10.3993 7.19776 7.18637 6.1676 4.8484 4.41394 3.65514 5.3724
threshold=1.0000000180025095e-35 1.0000000180025095e-35 1.0000000180025095e-35 1.0000000180025095e-35 979.50000000000011 13.500000000000002 1.0000000180025095e-35 2.5000000000000004 11.500000000000002 1.0000000180025095e-35 1.0000000180025095e-35 2.5000000000000004 2324.0000000000005 1.0000000180025095e-35
decision_type=2 2 2 2 2 2 2 2 2 2 2 2 2 2
left_child=1 3 11 4 -1 9 12 -8 -3 -6 -4 -2 -7 -14
right_child=2 8 10 -5 5 6 7 -9 -10 -11 -12 -13 13 -15
leaf_value=0.090966128065005827 0.038801156930569992 -0.069347820769251611 -0.05026726363844785 -0.034490679470124304 0.022135733905470079 0.048582834362889508 0.03134553241227131 0.082988122430471642 0.0017343590418921453 -0.046529475853381456 0.0025819770849923821 -0.026713848958468803 0.025356975743080348 -0.042857569296272005
leaf_weight=7.7912396490573874 5.7375257611274701 4.6132395714521435 41.171137124300003 5.1618021279573432 6.9297175258398038 4.5247413218021419 11.822100147604942 15.717597618699074 15.511321261525152 6.1927268654108047 4.8510439395904532 4.6581415981054306 6.6369679719209653 5.1077020615339279
leaf_count=35 26 23 209 24 33 21 54 70 73 30 24 23 31 24
internal_value=-8.02581e-05 0.0216322 -0.0347204 0.0320545 0.0373616 0.0300257 0.0420953 0.0608193 -0.0145601 -0.0102687 -0.0446966 0.00944487 0.0104008 -0.00430921
internal_weight=146.427 90.0092 56.4178 69.8846 64.7228 56.9316 43.8091 27.5397 20.1246 13.1224 46.0222 10.3957 16.2694 11.7447
internal_count=700 418 282 322 298 263 200 124 96 63 233 49 76 55
is_linear=0
shrinkage=0.05


Tree=4
num_leaves=15
num_cat=0
split_feature=10 1 12 0 17 49 1 0 1 0 16 4 0 3
split_gain=40.0823 12.3602 15.2796 14.6166 11.2013 9.26877 5.61175 7.87002 7.5604 6.31979 4.88069 4.75094 4.05415 3.95772
threshold=1.0000000180025095e-35 8079.0000000000009 1.0000000180025095e-35 11.500000000000002 1.0000000180025095e-35 1.0000000180025095e-35 967.50000000000011 15.500000000000002 2375.0000000000005 31.500000000000004 1.0000000180025095e-35 28.500000000000004 15.500000000000002 2.5000000000000004
decision_type=2 2 2 2 2 2 2 2 2 2 2 2 2 2
left_child=1 2 3 -1 6 13 -5 -8 10 -10 -9 12 -7 -2
right_child=5 -3 -4 4 -6 11 7 8 9 -11 -12 -13 -14 -15
leaf_value=-0.041430778779912872 0.036374058102443665 0.085316484088812913 0.087445017102708855 0.072625645603297886 -0.046467337444350137 -0.050060469029983207 -0.010981515844159141 0.041318978948877705 -0.0039193512301981285 0.049803878307816865 0.10475719080298994 -0.053605235813941901 0.0068268073845245405 -0.025686906974291386
leaf_weight=12.174362182617186 5.8123420178890211 6.7844635844230643 6.7217857688665381 5.5848111659288397 6.056777134537696 5.4871997535228711 14.838992789387701 9.908770799636839 15.696498498320581 8.4056465178728086 4.3686760812997809 32.282453566789627 7.2965351045131683 4.6035681962966919
leaf_count=60 26 30 30 24 29 28 71 45 72 38 19 168 37 23
internal_value=-0.000100077 0.0204064 0.0151485 0.00884012 0.0182761 -0.0335644 0.0249446 0.019941 0.0318967 0.0148167 0.0607301 -0.0433893 -0.0175911 0.00894469
internal_weight=146.023 90.5408 83.7563 77.0345 64.8602 55.4821 58.8034 53.2186 38.3796 24.1021 14.2774 45.0662 12.7837 10.4159
internal_count=700 418 388 358 298 282 269 245 174 110 64 233 65 49
is_linear=0
shrinkage=0.05


Tree=5
num_leaves=15
num_cat=0
split_feature=10 15 42 49 7 30 2 46 0 14 1 37 4 37
split_gain=36.503 11.3667 8.6635 8.64229 8.53188 8.28273 7.574 6.60187 6.37213 4.61644 4.51909 4.29145 5.45429 3.66696
threshold=1.0000000180025095e-35 1.0000000180025095e-35 1.0000000180025095e-35 1.0000000180025095e-35 1.0000000180025095e-35 1.0000000180025095e-35 3.5000000000000004 1.0000000180025095e-35 11.500000000000002 1.0000000180025095e-35 4146.0000000000009 1.0000000180025095e-35 33.500000000000007 1.0000000180025095e-35
decision_type=2 2 2 2 2 2 2 2 2 2 2 2 2 2
left_child=1 2 4 -2 5 7 10 11 -3 13 -6 12 -1 -5
right_child=3 8 -4 9 6 -7 -8 -9 -10 -11 -12 -13 -14 -15
leaf_value=-0.022680085498351755 0.0084765944692794439 -0.067323172740879997 -0.0340037246125727 -0.057582149407037611 0.0062004907153940985 -0.038007543546191708 0.076030131052582495 0.074838381091265255 0.00092560547421129374 0.0042709020444866306 0.067069081309451786 0.04324101970936689 0.040680458731329222 -0.024024966685096766
leaf_weight=9.7361219078302401 10.430239528417586 4.3818787485361126 5.1194593608379355 27.836531400680542 9.4253219217062014 5.7566269338130942 16.397853851318359 5.9065012484788886 15.58140943944454 4.7794936150312415 4.5076804012060157 8.9225568324327469 5.2163586616516122 11.505930483341215
leaf_count=45 49 23 24 149 44 27 71 26 73 24 20 41 24 60
internal_value=-0.000118259 0.0192771 0.0286506 -0.032455 0.0335202 0.0168958 0.0529988 0.0275084 -0.0140548 -0.042131 0.025893 0.0157993 -0.000575972 -0.0477682
internal_weight=145.504 90.9518 70.9885 54.5522 65.869 35.5382 30.3309 29.7815 19.9633 44.122 13.933 23.875 14.9525 39.3425
internal_count=700 418 322 282 298 163 135 136 96 233 64 110 69 209
is_linear=0
shrinkage=0.05


Tree=6
num_leaves=15
num_cat=0
split_feature=10 1 12 0 17 49 16 38 0 4 0 1 3 57
split_gain=33.2499 10.3604 12.677 12.4829 9.83171 8.0714 4.87637 6.96366 5.25421 4.55608 3.79346 3.70313 3.54236 3.30463
threshold=1.0000000180025095e-35 8079.0000000000009 1.0000000180025095e-35 11.500000000000002 1.0000000180025095e-35 1.0000000180025095e-35 1.0000000180025095e-35 1.0000000180025095e-35 31.500000000000004 28.500000000000004 15.500000000000002 3570.5000000000005 2.5000000000000004 1.0000000180025095e-35
decision_type=2 2 2 2 2 2 2 2 2 2 2 2 2 2
left_child=1 2 3 -1 6 12 8 -8 11 10 -7 13 -2 -5
right_child=5 -3 -4 4 -6 9 7 -9 -10 -11 -12 -13 -14 -15
leaf_value=-0.039685026964322009 0.033636559364931783 0.076642014030809585 0.077971337299232793 -0.014696941994054712 -0.045195770110952938 -0.047733714003685507 0.077666112349425942 0.010850664636647012 0.049428053623138762 -0.051266768906367749 0.0081141684671879131 -0.026240600673269634 -0.025022729616425404 0.02391916053691975
leaf_weight=11.846165627241133 5.8950901329517347 7.0064679384231559 6.965764343738555 7.5735116600990322 5.9499156624078742 5.2567499577999097 8.2740853130817396 7.3759886920452109 8.3253311067819578 30.717819213867188 7.2124603688716888 7.3753606230020514 4.5680565685033798 20.635708943009377
leaf_count=60 26 30 30 35 29 28 36 33 37 168 37 34 23 94
internal_value=-0.000132592 0.0182199 0.0133655 0.00754791 0.016089 -0.031374 0.0222113 0.0461755 0.0136701 -0.0409198 -0.0154301 0.00530419 0.00802677 0.0135516
internal_weight=144.978 91.3283 84.3218 77.3561 65.5099 53.6502 59.56 15.6501 43.9099 43.187 12.4692 35.5846 10.4631 28.2092
internal_count=700 418 388 358 298 282 269 69 200 233 65 163 49 129
is_linear=0
shrinkage=0.05


Tree=7
num_leaves=15
num_cat=0
split_feature=10 15 42 1 0 26 49 0 33 2 14 37 0 3
split_gain=30.313 9.50753 7.6941 8.23717 7.68388 8.51771 7.52816 5.70562 5.63867 5.0833 4.39812 3.56594 3.9951 3.18495
threshold=1.0000000180025095e-35 1.0000000180025095e-35 1.0000000180025095e-35 979.50000000000011 13.500000000000002 1.0000000180025095e-35 1.0000000180025095e-35 11.500000000000002 1.0000000180025095e-35 2.5000000000000004 1.0000000180025095e-35 1.0000000180025095e-35 15.500000000000002 2.5000000000000004
decision_type=2 2 2 2 2 2 2 2 2 2 2 2 2 2
left_child=1 2 3 -1 8 -6 13 -3 -5 -7 11 -8 -13 -2
right_child=6 7 -4 4 5 9 10 -9 -10 -11 -12 12 -14 -15
leaf_value=0.07730354783412921 0.031628221823638433 -0.06556867131756744 -0.033600783987422694 0.020484108079190169 0.0050461557658818901 0.025294578651341926 -0.055487347702643498 0.00038121966107870564 -0.045383763400116135 0.067848782098653956 0.0057752272207931528 -0.049350648442402223 0.010637538935160949 -0.024052998643772902
leaf_weight=8.1499432474374753 5.9543595910072309 4.1509520411491421 5.0846162587404242 6.98512054979801 16.78528793156147 12.15282315015793 26.38058502972126 15.622276052832602 6.0749033391475677 16.608710810542107 4.714492365717887 6.0405768603086454 5.1347319632768631 4.5159658789634705
leaf_count=35 26 23 24 33 76 54 149 73 30 70 24 33 27 23
internal_value=-0.000145638 0.0172387 0.025689 0.0302049 0.0236553 0.0333499 -0.0303436 -0.0134635 -0.0101545 0.049868 -0.0397452 -0.0454596 -0.0217878 0.0076123
internal_weight=144.355 91.6146 71.8414 66.7568 58.6068 45.5468 52.7407 19.7732 13.06 28.7615 42.2704 37.5559 11.1753 10.4703
internal_count=700 418 322 298 263 200 282 96 63 124 233 209 60 49
is_linear=0
shrinkage=0.05


Tree=8
num_leaves=15
num_cat=0
split_feature=10 1 12 0 17 49 16 3 0 1 0 32 2 35
split_gain=27.6585 9.09313 9.07423 11.4166 7.5103 7.02455 4.91339 4.68143 5.83592 4.65668 4.517 4.34825 4.21074 7.19875
threshold=1.0000000180025095e-35 9714.5000000000018 1.0000000180025095e-35 11.500000000000002 1.0000000180025095e-35 1.0000000180025095e-35 1.0000000180025095e-35 1.5000000000000002 31.500000000000004 1398.0000000000002 22.500000000000004 1.0000000180025095e-35 3.5000000000000004 1.0000000180025095e-35
decision_type=2 2 2 2 2 2 2 2 2 2 2 2 2 2
left_child=1 2 3 -1 6 -2 7 -5 12 -8 -11 -7 -9 -14
right_child=5 -3 -4 4 -6 11 9 8 -10 10 -12 -13 13 -15
leaf_value=-0.03825512993699226 0.0072227360470801007 0.08346205720251007 0.06573214176804687 -0.021393508493269115 -0.037449475921812171 -0.044556667423131684 0.081921893614470734 -0.0096500965966466335 0.060392932261462917 -0.0010103359695219426 0.062766347319001423 0.0056353515875266422 0.05242138415169955 -0.019829453457516702
leaf_weight=11.541474521160124 10.473212793469427 4.7812706232070914 7.3668538331985465 8.4614868909120542 6.0930529385805121 36.468659117817879 5.4241763800382641 14.142610743641853 7.1512533724308005 6.6411785036325437 4.770625963807106 4.8941233009099951 10.24684403836727 5.1956225633621225
leaf_count=60 49 20 31 39 30 206 23 66 31 30 20 27 45 23
internal_value=-0.000156678 0.0163281 0.0126401 0.00773075 0.0155213 -0.029356 0.0207242 0.0121359 0.0198587 0.0437803 0.0256511 -0.0386179 0.0100608 0.0281126
internal_weight=143.652 91.8165 87.0352 79.6683 68.1269 51.836 62.0338 45.1978 36.7363 16.836 11.4118 41.3628 29.5851 15.4425
internal_count=700 418 398 367 307 282 277 204 165 73 50 233 134 68
is_linear=0
shrinkage=0.05


Tree=9
num_leaves=15
num_cat=0
split_feature=10 1 12 0 17 1 15 50 3 26 0 4 58 1
split_gain=25.2221 8.06537 9.73276 9.81978 7.98013 6.56675 4.86679 4.48946 5.17075 5.26893 3.94933 6.16118 4.28201 3.64138
threshold=1.0000000180025095e-35 8079.0000000000009 1.0000000180025095e-35 11.500000000000002 1.0000000180025095e-35 3888.5000000000005 1.0000000180025095e-35 1.0000000180025095e-35 1.5000000000000002 1.0000000180025095e-35 27.500000000000004 28.500000000000004 1.0000000180025095e-35 2324.0000000000005
decision_type=2 2 2 2 2 2 2 2 2 2 2 2 2 2
left_child=1 2 3 -1 7 -2 -7 8 -5 13 11 -11 -13 -10
right_child=5 -3 -4 4 -6 6 -8 -9 9 10 -12 12 -14 -15
leaf_value=-0.037020306992051569 -0.03868736540927812 0.066130413506415534 0.066700050530466834 -0.025435624619789144 -0.042907762033965097 0.027294514841433283 -0.036354098661705719 0.042692694084752944 0.0226626489379229 -0.021742521801000864 0.065225718890146361 0.060200876607492786 0.0023673891552146091 -0.034404896140926962
leaf_weight=11.335433036088942 38.31444950401783 7.2408898174762717 7.213446006178855 8.0395191311836225 5.755230799317359 7.8082802146673185 4.8805959820747375 14.748275980353354 4.9353643804788572 6.1017231494188371 6.4010635167360297 8.595125734806059 5.0994884967803946 6.4464439153671265
leaf_count=60 214 30 30 37 29 41 27 65 22 27 27 38 23 30
internal_value=-0.000165344 0.0154818 0.0111504 0.00597721 0.0133483 -0.0283627 0.00281298 0.0187117 0.0109587 0.0187448 0.0310853 0.0200461 0.0386653 -0.00965934
internal_weight=142.915 91.912 84.6711 77.4577 66.1222 51.0033 12.6889 60.367 45.6187 37.5792 26.1974 19.7963 13.6946 11.3818
internal_count=700 418 388 358 298 282 68 269 204 167 115 88 61 52
is_linear=0
shrinkage=0.05


Tree=10
num_leaves=15
num_cat=0
split_feature=10 15 42 1 49 7 55 0 0 30 46 4 0 33
split_gain=22.987 7.63064 6.8415 7.37906 6.5553 6.28124 5.44479 5.36672 4.87152 4.57295 7.03527 4.47796 4.36783 5.35007
threshold=1.0000000180025095e-35 1.0000000180025095e-35 1.0000000180025095e-35 979.50000000000011 1.0000000180025095e-35 1.0000000180025095e-35 1.0000000180025095e-35 15.500000000000002 11.500000000000002 1.0000000180025095e-35 1.0000000180025095e-35 28.500000000000004 14.500000000000002 1.0000000180025095e-35
decision_type=2 2 2 2 2 2 2 2 2 2 2 2 2 2
left_child=1 2 3 -1 -2 9 -7 -8 -3 10 12 -6 -5 -14
right_child=4 8 -4 5 11 6 7 -9 -10 -11 -12 -13 13 -15
leaf_value=0.070628939413828223 0.0079359990845322345 -0.06352706315739419 -0.033886932660239587 -0.036642406954912769 -0.010745274230344111 0.0076464662377246518 0.006065841581592098 0.070362780964084826 -0.00069907350599775523 -0.036435778846316789 0.060540696290648045 -0.047479013545043434 -0.011761267697881481 0.049637761209024023
leaf_weight=8.2631313651800138 10.419948920607565 3.8413340896368053 5.0644907653331748 5.9009852260351243 11.782874524593351 9.5918668061494845 4.3059686720371273 13.176542475819586 15.676250115036963 5.4676285684108725 6.1739933192729941 28.038446560502052 8.3343719691038114 6.1778567731380454
leaf_count=35 49 23 24 29 65 42 20 56 73 26 26 168 37 27
internal_value=-0.000172828 0.0146843 0.0221589 0.0263707 -0.027371 0.0201858 0.0379178 0.0545263 -0.0130645 0.00520878 0.0137729 -0.0366097 -0.000372019 0.0143763
internal_weight=142.216 91.9744 72.4568 67.3923 50.2413 59.1292 27.0744 17.4825 19.5176 32.0548 26.5872 39.8213 20.4132 14.5122
internal_count=700 418 322 298 282 263 118 76 96 145 119 233 93 64
is_linear=0
shrinkage=0.05


Tree=11
num_leaves=15
num_cat=0
split_feature=10 1 0 17 1 37 16 1 15 42 2 44 44 1
split_gain=20.9718 7.06744 6.89138 7.78253 6.16917 4.97394 4.85287 4.585 4.42474 3.70442 3.91157 4.46733 4.0808 4.86575
threshold=1.0000000180025095e-35 9714.5000000000018 11.500000000000002 1.0000000180025095e-35 3888.5000000000005 1.0000000180025095e-35 1.0000000180025095e-35 1398.0000000000002 1.0000000180025095e-35 1.0000000180025095e-35 3.5000000000000004 1.0000000180025095e-35 1.0000000180025095e-35 1373.0000000000002
decision_type=2 2 2 2 2 2 2 2 2 2 2 2 2 2
left_child=1 2 5 6 -2 -1 9 -8 -6 10 11 -4 13 -12
right_child=4 -3 3 -5 8 -7 7 -9 -10 -11 12 -13 -14 -15
leaf_value=-0.047751187612013392 -0.036728614306053863 0.072322106985160603 -0.012337883786364669 -0.037558883231271573 0.026961746129273514 0.018990635992957944 0.077729978340914718 0.02533342530852542 -0.034394448807763843 -0.030042281608609656 0.085896694636604737 0.039953257756832651 -0.0033855657804055385 0.027321192735054664
leaf_weight=7.901302829384802 36.918568208813667 4.906563311815261 15.444501578807833 6.1497858911752692 7.8123144358396512 4.316607266664505 6.2667464315891293 12.509550675749777 4.7099127471446991 4.5432891696691504 4.8541239202022615 5.5529697090387335 6.3938991129398337 13.149255231022833
leaf_count=44 214 20 72 31 41 21 26 54 27 21 20 25 28 56
internal_value=-0.000179434 0.013936 0.0106463 0.0163285 -0.0264423 -0.0241712 0.0211513 0.0428212 0.0038842 0.0130036 0.0173118 0.00149098 0.030928 0.0431145
internal_weight=141.429 91.9886 87.082 74.8641 49.4408 12.2179 68.7143 18.7763 12.5222 49.938 45.3947 20.9975 24.3973 18.0034
internal_count=700 418 398 333 282 65 302 80 68 222 201 97 104 76
is_linear=0
shrinkage=0.05


Tree=12
num_leaves=15
num_cat=0
split_feature=10 15 49 7 20 37 4 2 0 4 1 1 0 3
split_gain=19.1226 6.62294 6.10775 5.78042 5.69335 7.00578 6.50606 5.16502 4.47564 4.36907 4.04743 3.84186 3.45456 2.88598
threshold=1.0000000180025095e-35 1.0000000180025095e-35 1.0000000180025095e-35 1.0000000180025095e-35 1.0000000180025095e-35 1.0000000180025095e-35 31.500000000000004 3.5000000000000004 15.500000000000002 28.500000000000004 1745.0000000000002 4146.0000000000009 15.500000000000002 2.5000000000000004
decision_type=2 2 2 2 2 2 2 2 2 2 2 2 2 2
left_child=1 3 13 4 5 -1 -7 11 -3 12 -9 -5 -4 -2
right_child=2 8 9 7 -6 6 -8 10 -10 -11 -12 -13 -14 -15
leaf_value=-0.00036074885860477596 0.031211743850256459 -0.039158084285599894 -0.042120782803551436 -0.0033688846696425033 -0.022550358962062651 0.088775256128474367 0.0098393208574100548 0.077211030802108199 0.0091612090124777844 -0.04578436285037632 0.029875829206499033 0.049366215886729709 0.013618648396733124 -0.022139978940757119
leaf_weight=17.07714618742466 5.962622404098509 8.7752358764410037 4.675325855612753 10.353000506758688 11.458898469805716 5.5392340868711489 4.9370245784521103 9.0314787626266497 10.558948010206221 26.814925879240036 9.0324148833751661 5.1825259476900092 6.8561772555112839 4.4090908765792847
leaf_count=77 26 48 28 48 54 24 22 37 48 168 38 22 37 23
internal_value=-0.000183114 0.0132362 -0.0255095 0.0201607 0.00706857 0.0193865 0.051576 0.035362 -0.0127695 -0.0347167 0.0535422 0.0142231 -0.00898031 0.00853154
internal_weight=140.664 91.9459 48.7181 72.6117 39.0123 27.5534 10.4763 33.5994 19.3342 38.3464 18.0639 15.5355 11.5315 10.3717
internal_count=700 418 282 322 177 123 46 145 96 233 75 70 65 49
is_linear=0
shrinkage=0.05


Tree=13
num_leaves=15
num_cat=0
split_feature=10 1 12 0 1 0 16 1 51 38 17 3 0 1
split_gain=17.462 6.27598 6.19294 8.24999 5.76742 6.48222 6.38865 5.71522 4.48742 4.24614 4.13156 3.97353 4.60188 4.80323
threshold=1.0000000180025095e-35 9714.5000000000018 1.0000000180025095e-35 8.5000000000000018 967.50000000000011 13.500000000000002 1.0000000180025095e-35 3888.5000000000005 1.0000000180025095e-35 1.0000000180025095e-35 1.0000000180025095e-35 1.5000000000000002 31.500000000000004 2330.0000000000005
decision_type=2 2 2 2 2 2 2 2 2 2 2 2 2 2
left_child=1 2 3 -1 -5 8 10 -2 -6 -9 11 -7 13 -13
right_child=7 -3 -4 4 5 6 -8 9 -10 -11 -12 12 -14 -15
leaf_value=-0.05694059976856089 -0.034848531169322933 0.067381084764096613 0.052658759090182229 0.053046700651756588 0.015418415484611009 -0.028887897924797998 0.046814552606560228 0.048969278812881878 -0.041104913314470776 -0.014726078074024956 -0.038659668717145233 0.031448785848895086 0.051865202175030156 -0.014945094275763546
leaf_weight=4.9843106269836417 35.542861104011536 4.9414487630128852 7.5724289715290061 6.9003031104803076 5.2018582373857507 5.4637231826782218 11.350027695298193 3.756094649434087 10.805323228240013 8.6238256543874741 4.9057611227035514 10.279439151287084 7.3409871459007254 12.200477242469786
leaf_count=28 214 20 31 29 26 25 47 19 56 49 25 45 31 55
internal_value=-0.000186932 0.0125675 0.00945435 0.00533559 0.009505 0.00505701 0.013689 -0.024658 -0.0227365 0.00459923 0.00433412 0.0103117 0.0174938 0.00626953
internal_weight=139.869 91.9461 87.0046 79.4322 74.4479 67.5476 51.5404 47.9228 16.0072 12.3799 40.1904 35.2846 29.8209 22.4799
internal_count=700 418 398 367 339 310 228 282 82 68 181 156 131 100
is_linear=0
shrinkage=0.05


Tree=14
num_leaves=15
num_cat=0
split_feature=10 15 49 42 1 7 55 0 14 1 30 46 37 0
split_gain=15.9283 5.68427 5.66519 5.44948 5.66986 4.96 4.76891 4.28752 4.25647 4.18115 4.09568 5.91187 3.71392 3.7963
threshold=1.0000000180025095e-35 1.0000000180025095e-35 1.0000000180025095e-35 1.0000000180025095e-35 979.50000000000011 1.0000000180025095e-35 1.0000000180025095e-35 15.500000000000002 1.0000000180025095e-35 3954.0000000000005 1.0000000180025095e-35 1.0000000180025095e-35 1.0000000180025095e-35 15.500000000000002
decision_type=2 2 2 2 2 2 2 2 2 2 2 2 2 2
left_child=1 3 -2 4 -1 10 -7 -8 12 -3 11 -6 -4 -14
right_child=2 9 8 -5 5 6 7 -9 -10 -11 -12 -13 13 -15
leaf_value=0.060653549419574099 0.0090098703518609515 -0.025815566618053305 -0.050409409169840817 -0.032375908937529146 -0.0017393711009562778 0.0040128274195272012 0.0043596372080189931 0.061707089631971149 0.013292381784762436 0.028170897124043883 -0.036402559552730931 0.053830121716352375 -0.043244204794452852 0.018407300376339961
leaf_weight=8.3365092873573285 10.30121313035488 14.329507291316988 22.541172116994858 4.9361583143472663 20.356467217206959 9.6565171927213687 4.3115302473306683 13.354252994060515 4.3901963979005805 4.783757120370864 5.4081315696239463 6.2574632465839377 5.229777514934538 4.7784450054168701
leaf_count=35 49 74 149 24 93 42 20 56 24 22 26 26 33 27
internal_value=-0.000190627 0.0119571 -0.0237785 0.0183426 0.0220417 0.0166176 0.0322666 0.0477108 -0.0329221 -0.0123036 0.00326533 0.0113261 -0.0391555 -0.0138086
internal_weight=138.971 91.7303 47.2408 72.617 67.6809 59.3444 27.3223 17.6658 36.9396 19.1133 32.0221 26.6139 32.5494 10.0082
internal_count=700 418 282 322 298 263 118 76 233 96 145 119 209 60
is_linear=0
shrinkage=0.05


Tree=15
num_leaves=15
num_cat=0
split_feature=10 1 17 0 25 37 50 26 3 4 40 4 38 55
split_gain=14.5475 5.53439 5.51166 6.23872 5.3806 4.7434 4.32001 3.91876 5.67856 3.80765 3.75475 5.06189 3.4977 3.63289
threshold=1.0000000180025095e-35 9714.5000000000018 1.0000000180025095e-35 11.500000000000002 1.0000000180025095e-35 1.0000000180025095e-35 1.0000000180025095e-35 1.0000000180025095e-35 1.5000000000000002 26.500000000000004 1.0000000180025095e-35 27.500000000000004 1.0000000180025095e-35 1.0000000180025095e-35
decision_type=2 2 2 2 2 2 2 2 2 2 2 2 2 2
left_child=1 2 3 5 9 -1 7 12 -9 -2 -10 -12 -5 -14
right_child=4 -3 -4 6 -6 -7 -8 8 10 -11 11 -13 13 -15
leaf_value=-0.045764244837514644 0.0040761426425131491 0.062774414695556432 -0.037071433429870626 0.021127289594044994 0.024653635909193634 0.021087220669018809 0.039731813545547889 -0.021270144487859872 -0.011853514216177842 -0.036011643020204757 -0.0025680151407235221 0.050368424759588339 0.0066570138127631691 -0.052631362381898597
leaf_weight=7.4720962494611722 7.1697374582290641 4.9522441774606696 6.1812328547239295 5.9040033519268045 5.2601959854364386 4.1145675480365753 16.738066300749779 6.8052751719951621 4.6160701066255596 34.076228052377701 5.9911773055791882 18.339095622301102 4.5573986619710922 5.9662675261497498
leaf_count=44 41 20 32 27 28 20 72 31 21 213 26 78 20 27
internal_value=-0.000193573 0.0113654 0.0084284 0.011922 -0.0229697 -0.0220245 0.0176292 0.0105391 0.0198274 -0.0290432 0.0294894 0.0373332 -0.00967505 -0.0269558
internal_weight=138.144 91.6375 86.6853 80.504 46.5062 11.5867 68.9174 52.1793 35.7516 41.246 28.9463 24.3303 16.4277 10.5237
internal_count=700 418 398 366 282 64 302 230 156 254 125 104 74 47
is_linear=0
shrinkage=0.05


Tree=16
num_leaves=15
num_cat=0
split_feature=10 49 1 12 0 1 0 1 16 32 35 34 51 4
split_gain=13.2616 5.33341 5.0535 6.73567 7.00511 5.0584 5.33609 6.74356 4.57964 4.2539 4.07407 3.80054 3.96649 5.85143
threshold=1.0000000180025095e-35 1.0000000180025095e-35 8079.0000000000009 1.0000000180025095e-35 8.5000000000000018 967.50000000000011 14.500000000000002 5352.5000000000009 1.0000000180025095e-35 1.0000000180025095e-35 1.0000000180025095e-35 1.0000000180025095e-35 1.0000000180025095e-35 29.500000000000004
decision_type=2 2 2 2 2 2 2 2 2 2 2 2 2 2
left_child=2 -2 3 4 -1 -6 -7 8 10 -3 11 12 -8 -14
right_child=1 9 -4 -5 5 6 7 -9 -10 -11 -12 -13 13 -15
leaf_value=-0.055763168142181699 0.0096671599785237792 -0.0378102979325248 0.050414737868089955 0.053103971036285648 0.047483845329827627 -0.022586937941293808 0.064992630704783061 -0.034558205848557066 0.048922382896726568 0.014397902058504265 -0.021771443607065719 -0.022520541724383798 -0.021075433028769911 0.042453861011999036
leaf_weight=4.7656956166028968 10.239537030458449 31.173858314752579 7.4003019779920569 7.3322503119707099 6.9167681485414496 15.97992157936096 5.4631931036710784 7.0561829656362525 9.4448700845241529 4.4598558247089377 7.9387564659118643 4.4342539310455313 6.3588484972715387 8.4292056262493116
leaf_count=28 49 206 30 30 29 83 24 33 39 27 36 20 29 37
internal_value=-0.000195566 -0.0221369 0.0108022 0.0073174 0.00294536 0.00683011 0.00251106 0.0106752 0.0182621 -0.031276 0.00938578 0.0194058 0.0285861 0.0151363
internal_weight=137.393 45.8733 91.5202 84.1199 76.7877 72.022 65.1052 49.1253 42.0691 35.6337 32.6243 24.6855 20.2512 14.7881
internal_count=700 282 418 388 358 330 301 218 185 233 146 110 90 66
is_linear=0
shrinkage=0.05


Tree=17
num_leaves=15
num_cat=0
split_feature=10 1 11 12 1 0 1 0 1 2 55 15 0 20
split_gain=12.1032 5.24616 4.73624 4.49446 5.21612 6.00147 5.12972 5.54078 7.16604 5.22742 4.2695 3.90878 3.31566 4.2646
threshold=1.0000000180025095e-35 3888.5000000000005 1.0000000180025095e-35 1.0000000180025095e-35 8079.0000000000009 8.5000000000000018 967.50000000000011 15.500000000000002 2243.5000000000005 3.5000000000000004 1.0000000180025095e-35 1.0000000180025095e-35 37.500000000000007 1.0000000180025095e-35
decision_type=2 2 2 2 2 2 2 2 2 2 2 2 2 2
left_child=2 -2 3 4 5 -1 -7 9 -9 10 -8 -3 13 -10
right_child=1 11 -4 -5 -6 6 7 8 12 -11 -12 -13 -14 -15
leaf_value=-0.054615034065886761 -0.031591022742088554 0.028481814989702561 0.061137586846143524 0.043227537126410184 0.050234414493839245 0.044999158623126256 -0.0385213332011375 0.040781446183230714 -0.0016253539225477211 -0.057161338439827826 0.020758893913861824 -0.030860061146782792 0.03284629067395952 -0.05587333350045956
leaf_weight=4.6261466145515433 33.210417956113815 7.6556653231382352 4.3598577231168738 8.0881895720958692 5.6824550181627265 6.9332861006259909 5.0921051353216189 12.964221149682997 19.518809154629714 6.949937477707862 7.5272669792175293 4.3527131974697113 5.0605147927999488 4.4485455155372611
leaf_count=28 214 41 19 33 23 29 27 55 89 35 38 27 22 20
internal_value=-0.000197709 -0.0213502 0.0102842 0.00773259 0.00408947 0.0005034 0.00422611 -0.000365909 0.00987421 -0.0223393 -0.00316156 0.00697199 -0.00392936 -0.0116942
internal_weight=136.47 45.2188 91.2513 86.8915 78.8033 73.1208 68.4947 61.5614 41.9921 19.5693 12.6194 12.0084 29.0279 23.9674
internal_count=700 282 418 399 366 343 315 286 186 100 65 68 131 109
is_linear=0
shrinkage=0.05


Tree=18
num_leaves=15
num_cat=0
split_feature=10 0 47 4 15 42 1 7 55 30 46 1 4 0
split_gain=11.0354 5.01576 6.11344 5.42148 4.51796 4.49375 4.86303 4.27778 4.23578 3.68351 4.80378 3.55957 3.42943 3.05095
threshold=1.0000000180025095e-35 15.500000000000002 1.0000000180025095e-35 31.500000000000004 1.0000000180025095e-35 1.0000000180025095e-35 979.50000000000011 1.0000000180025095e-35 1.0000000180025095e-35 1.0000000180025095e-35 1.0000000180025095e-35 3954.0000000000005 32.500000000000007 14.500000000000002
decision_type=2 2 2 2 2 2 2 2 2 2 2 2 2 2
left_child=4 -2 3 -3 5 6 -1 9 -9 10 13 -6 -10 -8
right_child=1 2 -4 -5 11 -7 7 8 12 -11 -12 -13 -14 -15
leaf_value=0.054735077223038199 -0.040520128922326842 0.012382405291475725 0.046383173206638109 -0.03847182924293685 -0.02488935112752767 -0.031229232562385439 -0.034085718285222805 0.0016364631787632745 0.0257453013298692 -0.036548097054613947 0.047228630402372324 0.024963053598732809 0.071247941379110072 0.00917827658936478
leaf_weight=8.259442523121832 18.46356937289238 8.9086818397045189 4.5229163467884055 12.729472875595091 13.934060931205751 4.8095359802246085 5.6428050547838309 9.6193689852952975 10.994661614298822 5.3378939926624289 6.2686749994754782 4.8190390914678565 6.642597869038581 14.665990129113196
leaf_count=35 124 51 21 86 74 24 29 42 47 26 26 22 29 64
internal_value=-0.000199739 -0.0205665 -0.00648398 -0.0175345 0.00978839 0.0154649 0.0187953 0.0137787 0.0283261 0.00135485 0.00896738 -0.0120786 0.0428826 -0.00284264
internal_weight=135.619 44.6246 26.1611 21.6382 90.9941 72.241 67.4314 59.172 27.2566 31.9154 26.5775 18.7531 17.6373 20.3088
internal_count=700 282 158 137 418 322 298 263 118 145 119 96 76 93
is_linear=0
shrinkage=0.05


Tree=19
num_leaves=15
num_cat=0
split_feature=15 7 34 25 40 5 44 1 26 8 2 57 1 1
split_gain=10.2006 7.59741 7.23344 8.02544 5.52204 5.06238 6.31758 4.76327 4.41877 4.32742 3.90345 3.74424 3.18452 2.71014
threshold=1.0000000180025095e-35 1.0000000180025095e-35 1.0000000180025095e-35 1.0000000180025095e-35 1.0000000180025095e-35 1.5000000000000002 1.0000000180025095e-35 2275.5000000000005 1.0000000180025095e-35 1.0000000180025095e-35 3.5000000000000004 1.0000000180025095e-35 1745.0000000000002 4146.0000000000009
decision_type=2 2 2 2 2 2 2 2 2 2 2 2 2 2
left_child=1 2 3 5 -2 6 8 -7 -1 -8 13 -10 -12 -3
right_child=4 10 -4 -5 -6 7 9 -9 11 -11 12 -13 -14 -15
leaf_value=-0.041447274666422965 0.034459046940619006 -0.005940866538631101 -0.038874754516105142 0.051212910676744577 -0.031023640219178153 -0.0094367409114664361 -0.0061289380071019549 0.060853029851301789 -0.033559680380374053 0.066833767228618043 0.064358379103930372 0.015807307219376995 0.022229886298390011 0.038156981023295823
leaf_weight=14.171611577272417 3.6050620675086966 10.351824179291723 11.070490851998327 8.1530023217201215 30.101456418633461 4.3254286944866163 4.2788221240043622 5.4435022324323654 6.2508789300918588 3.8704632818698883 8.8875569105148333 9.9621674120426178 9.0569194108247739 5.2517396360635749
leaf_count=81 18 48 59 38 180 22 27 27 34 17 37 52 38 22
internal_value=-0.000200526 0.00774284 -0.00191943 0.00532718 -0.02402 -0.00241784 -0.0105679 0.0297305 -0.0210526 0.0285243 0.0271913 -0.00322595 0.0430953 0.00890128
internal_weight=134.781 101.074 67.5264 56.4559 33.7065 48.3029 38.5339 9.76893 30.3847 8.14929 33.548 16.213 17.9445 15.6036
internal_count=700 502 357 298 198 260 211 49 167 44 145 86 75 70
is_linear=0
shrinkage=0.05


Tree=20
num_leaves=15
num_cat=0
split_feature=10 20 49 4 50 1 32 16 42 4 1 1 0 1
split_gain=9.40166 4.7577 6.61512 4.61994 4.26204 4.90025 4.59739 3.77147 4.65404 4.54781 2.98465 2.89645 3.22691 3.18415
threshold=1.0000000180025095e-35 1.0000000180025095e-35 1.0000000180025095e-35 28.500000000000004 1.0000000180025095e-35 8079.0000000000009 1.0000000180025095e-35 1.0000000180025095e-35 1.0000000180025095e-35 29.500000000000004 2113.0000000000005 5352.5000000000009 11.500000000000002 1287.5000000000002
decision_type=2 2 2 2 2 2 2 2 2 2 2 2 2 2
left_child=4 2 -2 -4 5 7 -6 8 11 -9 -11 12 -1 -14
right_child=1 -3 3 -5 6 -7 -8 9 -10 10 -12 -13 13 -15
leaf_value=-0.033716977792382447 0.032687478778962706 -0.044027487389800078 0.01116185848513709 -0.037193606012219382 0.014417091835604532 0.04484261686007246 0.067535898877140912 0.055826928804462932 -0.058248778445398081 0.027407561020999449 -0.026565522476317556 -0.037945651806294833 0.041915805359230868 0.00047036594574881367
leaf_weight=5.5451776906847945 7.4317839741706875 13.441248774528502 7.2745034396648434 15.388826325535772 14.698582261800768 6.4024177789688101 5.6349953562021247 5.6981047540903083 4.2123937606811515 5.063654348254202 5.1833861172199249 5.2773946225643149 5.5842958837747565 27.240143209695816
leaf_count=31 35 90 44 113 66 26 25 25 22 25 24 25 24 125
internal_value=-0.000201111 -0.0192948 -0.0082486 -0.0216724 0.00898009 0.00314196 0.0291378 -0.00104246 -0.00805912 0.0200181 0.000105694 -0.00321529 0.00156156 0.00752132
internal_weight=134.077 43.5364 30.0951 22.6633 90.5405 70.207 20.3336 63.8046 47.8594 15.9451 10.247 43.647 38.3696 32.8244
internal_count=700 282 192 157 418 327 91 301 227 74 49 205 180 149
is_linear=0
shrinkage=0.05


Tree=21
num_leaves=15
num_cat=0
split_feature=15 7 34 25 40 5 44 1 26 8 58 1 0 1
split_gain=9.12416 6.56199 6.68169 6.987 5.04843 4.52241 5.79298 4.15475 4.15469 3.67283 3.41005 3.40694 3.51277 3.02413
threshold=1.0000000180025095e-35 1.0000000180025095e-35 1.0000000180025095e-35 1.0000000180025095e-35 1.0000000180025095e-35 1.5000000000000002 1.0000000180025095e-35 2275.5000000000005 1.0000000180025095e-35 1.0000000180025095e-35 1.0000000180025095e-35 1656.0000000000002 31.500000000000004 2993.5000000000005
decision_type=2 2 2 2 2 2 2 2 2 2 2 2 2 2
left_child=1 2 3 5 -2 6 8 -7 -1 -8 -10 -3 13 -13
right_child=4 11 -4 -5 -6 7 9 -9 10 -11 -12 12 -14 -15
leaf_value=-0.040230706799009169 0.032674395291041977 0.047723615108682067 -0.037688835004935639 0.047779563963630332 -0.029857329254815775 -0.0088330265366700252 -0.0048588652334254339 0.056793999794893024 0.015204920305195147 0.062501835187897911 -0.032240609667543628 -0.020160411141408208 0.046483304427799521 0.023177029346482452
leaf_weight=13.798612460494043 3.6256807148456565 11.300700902938841 10.832778349518774 8.2234931886196119 29.406463429331779 4.2789131924509984 4.2054264247417432 5.5265375226736069 9.964070677757265 3.9004972279071808 6.1090485379099837 7.9490380585193696 6.0458865016698828 8.1553700566291791
leaf_count=81 18 49 59 38 180 22 27 27 52 17 34 36 25 35
internal_value=-0.000202054 0.00730472 -0.00174315 0.00520945 -0.0229937 -0.00211689 -0.00993294 0.0281556 -0.0201054 0.0275545 -0.00282811 0.0253835 0.013986 0.00178593
internal_weight=133.323 100.29 66.8394 56.0066 33.0321 47.7831 37.9777 9.80545 29.8717 8.10592 16.0731 33.451 22.1503 16.1044
internal_count=700 502 357 298 198 260 211 49 167 44 86 145 96 71
is_linear=0
shrinkage=0.05


Tree=22
num_leaves=15
num_cat=0
split_feature=15 7 34 20 17 1 37 54 4 40 2 13 5 0
split_gain=8.32182 5.92572 6.11598 6.71437 6.53312 5.10816 5.55744 8.61092 6.88849 4.61003 3.35688 3.27532 2.82072 2.63145
threshold=1.0000000180025095e-35 1.0000000180025095e-35 1.0000000180025095e-35 1.0000000180025095e-35 1.0000000180025095e-35 3888.5000000000005 1.0000000180025095e-35 1.0000000180025095e-35 29.500000000000004 1.0000000180025095e-35 3.5000000000000004 1.0000000180025095e-35 1.5000000000000002 27.500000000000004
decision_type=2 2 2 2 2 2 2 2 2 2 2 2 2 2
left_child=1 2 3 4 5 6 7 11 -8 -2 -3 -1 -7 -11
right_child=9 10 -4 -5 -6 12 8 -9 -10 13 -12 -13 -14 -15
leaf_value=0.006370441645433194 0.030711779674524049 0.0071944642604484859 -0.036361773191665926 -0.022644476008799611 -0.03562440167547562 0.030508317975086366 0.075365965069885993 0.049923320288091058 -0.011110415519280645 -0.036043263920052422 0.038949880669295195 -0.053172896104611657 0.083281580963803323 0.0026334721674234375
leaf_weight=3.4875852763652784 3.6634979397058478 15.610000059008597 10.670909166336058 15.812889680266379 5.3464098870754233 5.8822644352912885 5.7772735357284546 4.483618453145028 3.8292320966720581 23.546081133186821 17.825788095593452 6.8374378383159637 4.4457366466522217 5.4078523591160765
leaf_count=17 18 70 59 88 30 28 27 25 20 149 75 43 20 31
internal_value=-0.000202045 0.00695064 -0.00167471 0.00494652 0.0158295 0.0237474 0.011278 -0.00793535 0.0408958 -0.0221331 0.0241244 -0.0330604 0.0532248 -0.0288194
internal_weight=132.627 100.009 66.5734 55.9024 40.0896 34.7431 24.4151 14.8086 9.60651 32.6174 33.4358 10.325 10.328 28.9539
internal_count=700 502 357 298 210 180 132 85 47 198 145 60 48 180
is_linear=0
shrinkage=0.05


Tree=23
num_leaves=15
num_cat=0
split_feature=15 7 1 34 25 40 44 5 26 57 4 2 1 4
split_gain=7.59323 5.34866 5.79347 5.72985 5.09968 4.21325 4.05808 3.28808 3.81172 3.66137 3.06547 3.04081 2.64254 2.54175
threshold=1.0000000180025095e-35 1.0000000180025095e-35 10174.500000000002 1.0000000180025095e-35 1.0000000180025095e-35 1.0000000180025095e-35 1.0000000180025095e-35 1.5000000000000002 1.0000000180025095e-35 1.0000000180025095e-35 35.500000000000007 3.5000000000000004 1745.0000000000002 33.500000000000007
decision_type=2 2 2 2 2 2 2 2 2 2 2 2 2 2
left_child=1 2 3 4 6 -2 7 8 -1 -10 -8 -3 -13 -7
right_child=5 11 -4 -5 -6 13 10 -9 9 -11 -12 12 -14 -15
leaf_value=-0.040415261861695126 0.028896405521417385 0.0068241092377566695 0.05985949107824045 -0.04054812765258662 0.039069557794601452 -0.010162894664486194 0.047149382698743671 0.016984510310470349 -0.035642229671773197 0.014491521787898063 -0.012308086047123282 0.056714835795356425 0.018183419982016485 -0.040450496519402683
leaf_weight=12.943139173090458 3.6980466693639746 15.633696168661116 3.623090684413909 9.6767312288284284 7.6447934210300437 11.875190168619158 5.7063437700271589 7.4400170445442191 5.729931838810443 9.9937191382050514 3.4959098920226097 8.7156468927860278 9.0910789370536786 16.623875111341476
leaf_count=79 18 70 16 55 35 68 28 38 33 52 21 37 38 112
internal_value=-0.000203993 0.00661388 -0.00161401 -0.00517017 0.00129476 -0.0213146 -0.00507881 -0.012633 -0.0203198 -0.00377796 0.0245617 0.0229154 0.0370429 -0.02783
internal_weight=131.891 99.6941 66.2537 62.6306 52.9539 32.1971 45.3091 36.1068 28.6668 15.7237 9.20225 33.4404 17.8067 28.4991
internal_count=700 502 357 341 286 198 251 202 164 85 49 145 75 180
is_linear=0
shrinkage=0.05


Tree=24
num_leaves=15
num_cat=0
split_feature=10 0 17 20 4 49 50 42 32 15 1 4 45 5
split_gain=7.02895 4.48623 5.14345 5.21647 5.30287 6.80075 3.46263 4.29367 4.00672 3.46582 3.65381 3.40841 4.56609 3.46421
threshold=1.0000000180025095e-35 15.500000000000002 1.0000000180025095e-35 1.0000000180025095e-35 30.500000000000004 1.0000000180025095e-35 1.0000000180025095e-35 1.0000000180025095e-35 1.0000000180025095e-35 1.0000000180025095e-35 979.50000000000011 24.500000000000004 1.0000000180025095e-35 1.5000000000000002
decision_type=2 2 2 2 2 2 2 2 2 2 2 2 2 2
left_child=6 -2 3 4 -3 -6 7 9 -8 10 -1 -12 13 -13
right_child=1 2 -4 -5 5 -7 8 -9 -10 -11 11 12 -14 -15
leaf_value=0.045702988071150252 -0.037125867560721462 0.068019150935895195 -0.053661887258455512 -0.027697565083552048 0.058870937993873218 -0.032257703516193136 0.012088992666520556 -0.042247634772200393 0.061769022922752242 -0.016508541208242241 -0.03270165135928485 0.013788554950873527 -0.013570222661427329 0.057893351550385753
leaf_weight=6.898513823747634 16.801226265728474 4.6827866956591668 4.2637178748846045 7.186309538781642 3.2838013023138091 5.4372404143214164 14.599304005503656 5.0002448931336394 5.6211261451244345 13.645027957856653 4.9098930507898322 20.757086008787159 12.358983755111693 5.6678726971149436
leaf_count=30 124 25 28 49 15 41 66 26 25 74 22 94 57 24
internal_value=-0.000202971 -0.0171685 -0.00367732 0.00667327 0.0251008 0.00205567 0.00769683 0.0023808 0.0258997 0.00585469 0.0118862 0.00654707 0.0115158 0.0232486
internal_weight=131.113 41.6551 24.8539 20.5901 13.4038 8.72104 89.4581 69.2376 20.2204 64.2374 50.5923 43.6938 38.7839 26.425
internal_count=700 282 158 130 81 56 418 327 91 301 227 197 175 118
is_linear=0
shrinkage=0.05


Tree=25
num_leaves=15
num_cat=0
split_feature=1 17 0 26 43 50 14 8 2 3 8 0 0 57
split_gain=6.76813 7.39316 7.67858 10.3311 5.83849 5.77036 5.187 4.44567 4.49003 4.23765 4.95403 6.02518 5.69387 3.07429
threshold=10841.500000000002 1.0000000180025095e-35 15.500000000000002 1.0000000180025095e-35 1.0000000180025095e-35 1.0000000180025095e-35 1.0000000180025095e-35 1.0000000180025095e-35 2.5000000000000004 1.5000000000000002 1.0000000180025095e-35 19.000000000000004 31.500000000000004 1.0000000180025095e-35
decision_type=2 2 2 2 2 2 2 2 2 2 2 2 2 2
left_child=1 2 4 13 7 6 9 8 -1 -5 11 -11 -13 -4
right_child=-2 -3 3 5 -6 -7 -8 -9 -10 10 -12 12 -14 -15
leaf_value=-0.039436651012840454 0.058812625202171342 -0.041246514113495947 -0.032198344399224053 -0.027128556618451777 -0.036795203804006339 0.064702101788930627 0.064232749510916579 0.033718139134656197 0.0065912471714097386 0.050008186876088878 0.057887736686605254 -0.043711247823247215 0.02620952980619707 0.0032647299756986682
leaf_weight=8.733990184962753 4.683548927307128 11.161978602409361 11.725163459777832 6.1023190245032337 17.701193086802959 8.2017889320850355 5.179296374320983 7.1917839348316184 13.469833321869373 5.3333386331796708 6.2221385389566413 6.8378777280449849 5.0708147287368774 12.763984724879265
leaf_count=54 20 68 64 29 111 35 24 34 80 27 27 39 23 65
internal_value=-0.00020378 -0.00240279 0.00138276 0.0122019 -0.0141089 0.0269797 0.0180753 -0.00044778 -0.0115141 0.00998971 0.019643 0.00584166 -0.0139384 -0.0137146
internal_weight=130.379 125.696 114.534 67.4367 47.0968 42.9476 34.7458 29.3956 22.2038 29.5665 23.4642 17.242 11.9087 24.4891
internal_count=700 680 612 333 279 204 169 168 134 145 116 89 62 129
is_linear=0
shrinkage=0.05


Tree=26
num_leaves=15
num_cat=0
split_feature=15 7 34 20 17 43 30 1 40 2 38 2 1 55
split_gain=6.45062 4.53876 5.18455 5.51829 5.10384 4.43644 6.15193 5.9595 3.78342 3.62104 2.99064 2.61717 2.5649 2.55126
threshold=1.0000000180025095e-35 1.0000000180025095e-35 1.0000000180025095e-35 1.0000000180025095e-35 1.0000000180025095e-35 1.0000000180025095e-35 1.0000000180025095e-35 1760.5000000000002 1.0000000180025095e-35 2.5000000000000004 1.0000000180025095e-35 3.5000000000000004 4146.0000000000009 1.0000000180025095e-35
decision_type=2 2 2 2 2 2 2 2 2 2 2 2 2 2
left_child=1 2 3 4 5 6 9 -7 -2 12 -11 13 -1 -3
right_child=8 11 -4 -5 -6 7 -8 -9 -10 10 -12 -13 -14 -15
leaf_value=-0.0044481639527697483 0.027591447646746221 -0.021922175107336558 -0.034281922726809327 -0.020904294902824458 -0.032640809537620961 -0.055614921724836668 -0.020249253241906101 0.027991951735928128 -0.026339485893685961 0.088137079303761481 0.037387601968459805 0.03433651486039372 0.047325830300071189 0.020761494143683883
leaf_weight=5.0072850733995473 3.686489790678027 5.3127977401018116 10.219857692718504 15.385664679110048 5.0345847234129897 3.8948065564036352 4.6889709532260886 4.7076163440942764 27.591343067586422 5.5918280631303787 6.0370397418737411 17.616107687354088 4.5802864283323288 10.26469324529171
leaf_count=28 18 24 59 88 30 25 26 24 180 25 31 75 21 46
internal_value=-0.000204874 0.00608563 -0.00158175 0.00450241 0.014388 0.0212493 0.0315804 -0.00986164 -0.019983 0.043035 0.0617909 0.0211341 0.0202859 0.00620397
internal_weight=129.619 98.3415 65.1479 54.9281 39.5424 34.5078 25.9054 8.60242 31.2778 21.2164 11.6289 33.1936 9.58757 15.5775
internal_count=700 502 357 298 210 180 131 49 198 105 56 145 49 70
is_linear=0
shrinkage=0.05


Tree=27
num_leaves=15
num_cat=0
split_feature=1 17 0 20 35 10 34 57 0 26 43 8 19 57
split_gain=6.07891 6.55172 6.78426 5.03062 3.8971 4.15877 3.83061 5.80819 5.24007 5.14703 4.3525 4.59136 5.04712 4.28769
threshold=10841.500000000002 1.0000000180025095e-35 8.5000000000000018 1.0000000180025095e-35 1.0000000180025095e-35 1.0000000180025095e-35 1.0000000180025095e-35 1.0000000180025095e-35 15.500000000000002 1.0000000180025095e-35 1.0000000180025095e-35 1.0000000180025095e-35 1.0000000180025095e-35 1.0000000180025095e-35
decision_type=2 2 2 2 2 2 2 2 2 2 2 2 2 2
left_child=1 2 -1 6 5 -5 8 -8 10 13 11 12 -4 -10
right_child=-2 -3 3 4 -6 -7 7 -9 9 -11 -12 -13 -14 -15
leaf_value=-0.04038309632777147 0.055943587352403248 -0.039545493639597445 0.015733548699885098 0.012105914819126684 -0.043378983106647867 -0.036786363568309062 -0.062219715687519363 0.010779981578060064 -0.026509130601511569 0.03999093441111632 -0.038216110961920659 0.056535910733090389 -0.053891393308291874 0.03059438634452747
leaf_weight=9.012924022972582 4.6469640582799903 10.784083202481268 9.1542718410491997 15.229145839810377 7.6895988062024108 6.0880552083253852 4.1340117752552015 7.993582583963871 6.620832756161688 26.992131531238556 6.2023339271545401 4.136521264910697 3.6370038986206046 6.5289585217833519
leaf_count=63 20 68 52 72 50 44 23 40 34 125 38 18 21 32
internal_value=-0.000202835 -0.0023035 0.00123752 0.00483043 -0.0128646 -0.0018574 0.0116379 -0.0141039 0.0165719 0.0274944 -0.00238395 0.0107449 -0.00406324 0.00184314
internal_weight=128.85 124.203 113.419 104.406 29.0068 21.3172 75.3996 12.1276 63.2721 40.1419 23.1301 16.9278 12.7913 13.1498
internal_count=700 680 612 549 166 116 383 63 320 191 129 91 73 66
is_linear=0
shrinkage=0.05


Tree=28
num_leaves=15
num_cat=0
split_feature=15 7 34 20 37 25 4 6 40 1 1 0 4 4
split_gain=5.76433 3.99531 4.62368 4.61225 4.30085 5.22008 4.60243 4.03327 3.37108 2.56306 3.19774 2.35514 2.77605 5.43417
threshold=1.0000000180025095e-35 1.0000000180025095e-35 1.0000000180025095e-35 1.0000000180025095e-35 1.0000000180025095e-35 1.0000000180025095e-35 32.500000000000007 1.5000000000000002 1.0000000180025095e-35 1656.0000000000002 4280.5000000000009 27.500000000000004 29.500000000000004 33.500000000000007
decision_type=2 2 2 2 2 2 2 2 2 2 2 2 2 2
left_child=1 2 3 4 5 7 -6 -1 -2 -3 -11 12 -10 -14
right_child=8 9 -4 -5 6 -7 -8 -9 11 10 -12 -13 13 -15
leaf_value=-0.024263369276336006 0.025683157398954277 0.039622900137426219 -0.032808873641119195 -0.019300078987054631 0.05674443551045949 0.039921784972543603 -0.0040683636963058847 0.031256028932875025 -0.064475302350389466 -0.0024274473150153911 0.039065101200513291 0.0049695010916396753 0.027395864494264861 -0.038917950589423822
leaf_weight=14.88325240463019 3.6936097294092205 10.97632025182247 9.971619561314581 15.059044189751146 9.0195580050349218 6.4667092263698569 4.7496432960033408 4.1927360966801634 5.1682511493563714 15.431030884385111 6.6422509402036658 5.2028668001294127 4.1051238700747517 12.485039763152598
leaf_count=88 18 49 59 88 43 30 25 24 33 68 28 31 24 92
internal_value=-0.000204746 0.00574704 -0.00151096 0.00422907 0.0132423 0.00109984 0.0357672 -0.0120607 -0.0191139 0.0198773 0.0100584 -0.0252509 -0.0324772 -0.022509
internal_weight=128.047 97.3922 64.3426 54.3709 39.3119 25.5427 13.7692 19.076 30.6549 33.0496 22.0733 26.9613 21.7584 16.5902
internal_count=700 502 357 298 210 142 68 112 198 145 96 180 149 116
is_linear=0
shrinkage=0.05


Tree=29
num_leaves=15
num_cat=0
split_feature=1 17 0 20 35 10 34 57 0 26 47 43 3 58
split_gain=5.41765 6.00981 6.20923 4.25862 3.61783 3.71952 3.26292 5.37793 4.55803 4.6847 4.1718 4.01712 4.0681 3.83861
threshold=10841.500000000002 1.0000000180025095e-35 8.5000000000000018 1.0000000180025095e-35 1.0000000180025095e-35 1.0000000180025095e-35 1.0000000180025095e-35 1.0000000180025095e-35 15.500000000000002 1.0000000180025095e-35 1.0000000180025095e-35 1.0000000180025095e-35 3.5000000000000004 1.0000000180025095e-35
decision_type=2 2 2 2 2 2 2 2 2 2 2 2 2 2
left_child=1 2 -1 6 5 -5 8 -8 11 13 -11 12 -4 -10
right_child=-2 -3 3 4 -6 -7 7 -9 9 10 -12 -13 -14 -15
leaf_value=-0.039339569752824988 0.053047537987634556 -0.038362523191021472 0.033691956672492036 0.011771879463764665 -0.04181114288008133 -0.03514424353339337 -0.060554638786456165 0.0106319936510425 0.028066703934025557 0.028860320853620815 0.08248526548300994 -0.037315747400562864 -0.015587372928522379 -0.025951274724382897
leaf_weight=8.71867488324642 4.6035638302564612 10.50638999044895 8.7680497094988858 15.206066556274896 7.4462514966726294 5.8497652336955062 3.982572138309477 7.9478711634874344 6.5718631371855718 22.76252289116383 4.3142652362585059 6.0678026974201194 8.017347440123558 6.5833492949604988
leaf_count=63 20 68 46 72 50 44 23 40 32 107 18 38 45 34
internal_value=-0.000204106 -0.00220135 0.00118368 0.00459671 -0.0118559 -0.00126243 0.0108479 -0.0131312 0.0153827 0.0255121 0.0374046 -0.0024496 0.0101543 0.00103413
internal_weight=127.346 122.743 112.236 103.518 28.5021 21.0558 75.0156 11.9304 63.0852 40.232 27.0768 22.8532 16.7854 13.1552
internal_count=700 680 612 549 166 116 383 63 320 191 125 129 91 66
is_linear=0
shrinkage=0.05


Tree=30
num_leaves=15
num_cat=0
split_feature=15 7 4 30 6 8 1 0 16 1 2 1 1 54
split_gain=5.23604 3.46584 4.23584 4.58214 6.04272 4.80111 3.52767 3.07247 6.05914 2.93818 2.8683 2.7292 2.63145 2.52176
threshold=1.0000000180025095e-35 1.0000000180025095e-35 28.500000000000004 1.0000000180025095e-35 1.5000000000000002 1.0000000180025095e-35 1287.5000000000002 11.500000000000002 1.0000000180025095e-35 2400.5000000000005 3.5000000000000004 3618.5000000000005 2777.0000000000005 1.0000000180025095e-35
decision_type=2 2 2 2 2 2 2 2 2 2 2 2 2 2
left_child=1 2 6 4 5 11 -1 -2 -9 -7 12 -4 -8 -3
right_child=7 13 3 -5 -6 9 10 8 -10 -11 -12 -13 -14 -15
leaf_value=-0.01689048476356236 -0.057854043983794338 0.025698733367499643 -0.048285478352496081 -0.043990587899873507 0.04032241081315828 0.038808383673965233 0.037374013361430362 -0.026026722522307217 0.02978394695681072 -0.011370500952397911 0.055327882135089636 0.0036846028479688752 -0.010623422602376673 -0.0085198326363516985
leaf_weight=6.1982514634728458 4.2452717050910023 26.116033688187599 9.6353711411356944 8.428576745092867 6.5357545539736739 4.9226051867008209 5.4966707080602664 19.279940187931064 6.503589339554309 7.1611704975366592 5.9131776839494696 3.4238774329423913 5.9431860446929932 6.782494604587554
leaf_count=35 38 115 69 54 34 23 29 125 35 33 30 21 29 30
internal_value=-0.000204031 0.00546691 -0.001343 -0.0112264 -0.00250904 -0.0136428 0.0154882 -0.0184389 -0.0119491 0.00907103 0.0270534 -0.0346599 0.0124386 0.0186441
internal_weight=126.586 96.5572 63.6586 40.1074 31.6788 25.143 23.5513 30.0288 25.7835 12.0838 17.353 13.0592 11.4399 32.8985
internal_count=700 502 357 234 180 146 123 198 160 56 88 90 58 145
is_linear=0
shrinkage=0.05


Tree=31
num_leaves=15
num_cat=0
split_feature=1 17 0 50 0 20 26 1 0 1 1 0 37 10
split_gain=4.91231 5.42302 5.49677 3.76916 3.94786 3.34695 2.43338 4.07083 2.89294 4.63865 2.73238 2.56633 2.20959 2.17969
threshold=10841.500000000002 1.0000000180025095e-35 8.5000000000000018 1.0000000180025095e-35 19.000000000000004 1.0000000180025095e-35 1.0000000180025095e-35 1885.5000000000002 15.500000000000002 967.50000000000011 3570.5000000000005 19.000000000000004 1.0000000180025095e-35 1.0000000180025095e-35
decision_type=2 2 2 2 2 2 2 2 2 2 2 2 2 2
left_child=1 2 12 5 -5 6 7 -4 9 -8 11 -10 -1 -7
right_child=-2 -3 3 4 -6 13 8 -9 10 -11 -12 -13 -14 -15
leaf_value=-0.059579761128392188 0.050660950357040095 -0.037008149795036062 0.029758452978747477 0.0037806372754458015 0.047708890445947762 -0.0049631886797055517 0.041357909316759887 -0.02155297191065329 0.066736172975224814 -0.025677008010160457 0.0051537479939336543 0.021925254095189042 -0.0075313569190243309 -0.036632808188315345
leaf_weight=4.8838818147778493 4.5740385353565207 10.203511342406271 5.2170188575983074 11.502243816852571 9.2099687829613668 14.880864486098289 3.6186809614300719 14.919776029884813 4.9363387897610691 8.9963986426591855 11.917150296270846 9.058015473186968 3.5006794333457947 8.5575164780020714
leaf_count=41 20 68 32 58 41 74 18 82 24 53 54 44 22 69
internal_value=-0.000205575 -0.00212206 0.00107906 0.00425366 0.0233139 -0.000554767 0.00582638 -0.00825926 0.0131886 -0.0064478 0.0227486 0.0377318 -0.0378488 -0.016526
internal_weight=125.976 121.402 111.199 102.814 20.7122 82.1018 58.6634 20.1368 38.5266 12.6151 25.9115 13.9944 8.38456 23.4384
internal_count=700 680 612 549 99 450 307 114 193 71 122 68 63 143
is_linear=0
shrinkage=0.05


Tree=32
num_leaves=15
num_cat=0
split_feature=15 1 7 34 5 1 20 2 26 1 43 0 16 2
split_gain=4.67362 3.08654 3.81739 4.57529 3.24367 3.98945 3.42039 4.29891 6.1283 3.30259 2.92852 2.91426 5.31132 2.59154
threshold=1.0000000180025095e-35 10331.500000000002 1.0000000180025095e-35 1.0000000180025095e-35 1.5000000000000002 2275.5000000000005 1.0000000180025095e-35 2.5000000000000004 1.0000000180025095e-35 3515.0000000000005 1.0000000180025095e-35 11.500000000000002 1.0000000180025095e-35 2.5000000000000004
decision_type=2 2 2 2 2 2 2 2 2 2 2 2 2 2
left_child=1 2 3 4 6 -6 7 9 -9 -1 -8 -2 -13 -4
right_child=11 -3 13 -5 5 -7 10 8 -10 -11 -12 12 -14 -15
leaf_value=0.0043383015146450758 -0.057326194306473226 0.046851470524553386 -0.0027255754744982181 -0.037073934073104046 -0.014363961027294673 0.044394695005737284 -0.04796566086983918 -0.012383581755061074 0.050524774147780317 -0.052514734094739529 0.0020645127544507537 -0.024883426911133794 0.027299380297041199 0.027406272506767082
leaf_weight=5.8863777220249176 3.9957330450415638 4.2407905459403983 10.79289346933365 9.0082709863781911 4.4756470993161193 8.1473429873585683 7.1907110065221769 7.2534330710768691 8.30277069658041 4.5126555189490318 4.9306347593665123 18.863813199102882 6.5762114822864524 21.059768795967102
leaf_count=36 38 19 48 56 24 39 44 46 42 25 30 125 35 93
internal_value=-0.000204019 0.00515003 0.00321855 -0.00423832 0.00159589 0.023561 -0.0056859 0.00455508 0.0211923 -0.020333 -0.0276147 -0.0176292 -0.0113942 0.0171965
internal_weight=125.237 95.8013 91.5605 59.7078 50.6996 12.623 38.0766 25.9552 15.5562 10.399 12.1213 29.4358 25.44 31.8527
internal_count=700 502 483 342 286 63 223 149 88 61 74 198 160 141
is_linear=0
shrinkage=0.05


Tree=33
num_leaves=15
num_cat=0
split_feature=15 43 0 20 17 12 7 57 34 1 4 1 38 1
split_gain=4.2657 2.93498 3.81537 3.57828 4.45401 3.59107 3.44675 3.14192 2.96653 3.17821 2.92327 2.91919 4.92415 2.86557
threshold=1.0000000180025095e-35 1.0000000180025095e-35 14.500000000000002 1.0000000180025095e-35 1.0000000180025095e-35 1.0000000180025095e-35 1.0000000180025095e-35 1.0000000180025095e-35 1.0000000180025095e-35 7739.5000000000009 33.500000000000007 1861.0000000000002 1.0000000180025095e-35 3515.0000000000005
decision_type=2 2 2 2 2 2 2 2 2 2 2 2 2 2
left_child=1 3 -3 4 5 8 -5 -4 9 13 11 -2 -13 -1
right_child=10 2 7 6 -6 -7 -8 -9 -10 -11 -12 12 -14 -15
leaf_value=0.025770621977780562 -0.033942227832603998 -0.031976264531031133 -0.026980930961897787 -0.027132653594122348 -0.022310760562015964 0.057786700920399163 0.025300297435353444 0.02523839146060235 -0.014935861862013122 0.059958422610730672 -0.03114165411677397 0.047953320379188674 -0.028264007055422813 -0.0065113116643907348
leaf_weight=22.620517171919346 4.1237492561340359 10.95501994341612 4.2941799834370586 10.619190886616705 6.7562968283891669 5.8410015106201163 4.4467915892601004 8.7500960454344749 6.5663615167140952 4.6977803111076346 16.161892101168633 5.2260728105902654 3.5645918995141983 9.8755086809396726
leaf_count=112 27 70 24 65 41 25 19 43 34 21 122 28 21 48
internal_value=-0.000203461 0.00490542 -0.0102221 0.00998848 0.0157749 0.0209626 -0.0116568 0.00804777 0.0160475 0.0215174 -0.0169698 0.000765707 0.0170474 0.0159602
internal_weight=124.499 95.4227 23.9993 71.4234 56.3575 49.6012 15.066 13.0443 43.7602 37.1938 29.0763 12.9144 8.79066 32.496
internal_count=700 502 137 365 281 240 84 67 215 181 198 76 49 160
is_linear=0
shrinkage=0.05


Tree=34
num_leaves=15
num_cat=0
split_feature=1 17 0 50 0 20 37 57 56 25 26 0 0 0
split_gain=3.97528 4.67449 4.79292 3.14665 3.45409 2.56311 2.13151 2.07476 4.68392 3.75324 2.51166 4.90276 2.18147 4.83137
threshold=10841.500000000002 1.0000000180025095e-35 8.5000000000000018 1.0000000180025095e-35 19.000000000000004 1.0000000180025095e-35 1.0000000180025095e-35 1.0000000180025095e-35 1.0000000180025095e-35 1.0000000180025095e-35 1.0000000180025095e-35 22.500000000000004 15.500000000000002 19.000000000000004
decision_type=2 2 2 2 2 2 2 2 2 2 2 2 2 2
left_child=1 2 6 5 -5 7 -1 8 10 12 -4 -12 -9 -14
right_child=-2 -3 3 4 -6 -7 -8 9 -10 -11 11 -13 13 -15
leaf_value=-0.058888297053573763 0.046130156211708115 -0.035007218163269585 -0.046749051729208145 0.0030638274922113319 0.044260375649235219 -0.014719295676008173 -0.0065147192199794778 0.0040044501712429076 0.026193676342090102 -0.024264638953170832 -0.03977830808552256 0.031068203035144522 0.073264730701869119 0.014502675978596594
leaf_weight=4.5265500098466864 4.4630869776010504 9.8051211014389974 6.1626834273338327 11.433020889759065 9.1681983768939954 22.751537397503853 3.4033127501606941 12.23669419437647 7.4874732047319403 5.707296594977378 5.122081883251667 4.6670242175459862 4.9489654824137714 11.930678673088549
leaf_count=41 20 68 38 58 41 143 22 71 38 27 29 23 24 57
internal_value=-0.000200052 -0.00193256 0.00102786 0.00394949 0.0213976 -0.000487399 -0.0364108 0.00507013 -0.00643053 0.012811 -0.0217437 -0.00600174 0.0200785 0.0317312
internal_weight=123.814 119.351 109.546 101.616 20.6012 81.0144 7.92986 58.2629 23.4393 34.8236 15.9518 9.78911 29.1163 16.8796
internal_count=700 680 612 549 99 450 63 307 128 179 90 52 152 81
is_linear=0
shrinkage=0.05


Tree=35
num_leaves=15
num_cat=0
split_feature=15 40 43 0 30 7 1 2 51 1 1 1 4 57
split_gain=3.83515 2.76501 2.56393 3.3637 3.35897 4.27703 3.60459 4.89301 4.56539 4.31459 3.24895 3.73171 3.22258 2.71309
threshold=1.0000000180025095e-35 1.0000000180025095e-35 1.0000000180025095e-35 14.500000000000002 1.0000000180025095e-35 1.0000000180025095e-35 8079.0000000000009 2.5000000000000004 1.0000000180025095e-35 1398.0000000000002 934.50000000000011 1508.5000000000002 34.500000000000007 1.0000000180025095e-35
decision_type=2 2 2 2 2 2 2 2 2 2 2 2 2 2
left_child=2 -2 4 -4 6 -6 7 9 -9 -1 -10 -12 -13 -5
right_child=1 -3 3 13 5 -7 -8 8 10 -11 11 12 -14 -15
leaf_value=0.040196111764539993 0.024729952654436838 -0.02215317129669293 -0.030362164288707468 -0.025417066569057879 -0.034143893615719657 0.030709036605428498 0.050319134199609018 0.043802753768502255 0.053683206340591122 -0.021955991299611351 -0.049477194897221785 -0.0065180404400462678 0.045856191916379262 0.023280565595524303
leaf_weight=3.4218057319521931 3.597873970866206 24.977889813482761 10.69106011837721 4.2352527752518627 8.4367960542440397 3.6387513577938071 6.2277283966541281 13.605776160955427 3.0807388722896603 15.179210178554056 3.344887554645541 9.6987000256776792 4.2127806097269049 8.8091598749160767
leaf_count=17 18 180 70 24 53 16 28 64 15 80 20 47 25 43
internal_value=-0.00019803 -0.0162503 0.00465175 -0.00957087 0.00941667 -0.0146016 0.0143516 0.0100886 0.0213837 -0.0105226 0.00638507 -0.00205896 0.00934232 0.00746944
internal_weight=123.158 28.5758 94.5826 23.7355 70.8472 12.0755 58.7716 52.5439 33.9429 18.601 20.3371 17.2564 13.9115 13.0444
internal_count=700 198 502 137 365 69 296 268 171 97 107 92 72 67
is_linear=0
shrinkage=0.05


Tree=36
num_leaves=15
num_cat=0
split_feature=17 1 30 0 57 34 1 6 4 16 0 7 1 4
split_gain=3.6553 4.66844 7.12636 4.72675 4.4305 4.94625 3.97326 3.78812 5.11783 3.29169 3.49619 3.11304 2.86819 2.49119
threshold=1.0000000180025095e-35 4146.0000000000009 1.0000000180025095e-35 8.5000000000000018 1.0000000180025095e-35 1.0000000180025095e-35 3515.0000000000005 1.5000000000000002 37.500000000000007 1.0000000180025095e-35 15.500000000000002 1.0000000180025095e-35 7454.0000000000009 43.500000000000007
decision_type=2 2 2 2 2 2 2 2 2 2 2 2 2 2
left_child=1 3 -3 -1 5 13 7 8 9 10 -6 -10 -2 -5
right_child=12 2 -4 4 6 -7 -8 -9 11 -11 -12 -13 -14 -15
leaf_value=-0.041410184622208718 -0.04663457552906114 0.034349829428652175 -0.030205027950008585 0.0026405546527572227 -0.014222920227409848 -0.066899213943523259 -0.035338997610668603 0.04724798009623677 -0.045660422765408125 0.040745789093924643 0.024659791382145132 0.011431579123082264 0.011883004181459513 -0.038812889450053713
leaf_weight=7.4028687700629225 7.014009013772009 20.607476092875007 5.3941907063126555 15.40018286556006 10.98522897064686 4.1773768812417975 4.7689887136220923 6.754828229546546 6.3123385384678823 9.8462693616747838 12.203782938420771 3.8402627110481262 2.985210970044136 4.7397915571928015
leaf_count=61 54 98 29 88 64 27 25 36 43 48 61 18 16 32
internal_value=-0.000194524 0.0023819 0.0209576 -0.00320629 0.000372375 -0.0173852 0.00826499 0.0124287 0.00698277 0.0165246 0.00624005 -0.0240651 -0.0291645 -0.0071152
internal_weight=122.433 112.434 26.0017 86.4319 79.0291 24.3174 54.7117 49.9427 43.1879 33.0353 23.189 10.1526 9.99922 20.14
internal_count=700 630 127 503 442 147 295 270 234 173 125 61 70 120
is_linear=0
shrinkage=0.05


Tree=37
num_leaves=15
num_cat=0
split_feature=15 0 16 43 0 20 1 34 7 16 1 4 2 30
split_gain=3.42874 2.69407 4.5067 2.3209 3.07677 2.98163 3.7681 4.60245 2.93959 2.9242 2.70224 2.68397 2.7021 2.45935
threshold=1.0000000180025095e-35 11.500000000000002 1.0000000180025095e-35 1.0000000180025095e-35 9.5000000000000018 1.0000000180025095e-35 1839.5000000000002 1.0000000180025095e-35 1.0000000180025095e-35 1.0000000180025095e-35 2389.5000000000005 25.500000000000004 3.5000000000000004 1.0000000180025095e-35
decision_type=2 2 2 2 2 2 2 2 2 2 2 2 2 2
left_child=3 -2 -3 5 -5 6 9 13 10 -1 -7 -6 -13 -8
right_child=1 2 -4 4 11 8 7 -9 -10 -11 -12 12 -14 -15
leaf_value=0.015943449675861098 -0.056323491162308004 -0.022546737163696151 0.02590225329002166 -0.049516072999308276 0.027304214265326726 -0.049334143433252396 0.019973084909954267 -0.032082167433231203 0.023002411578697871 0.059973425587641849 0.0020608370864422273 -0.0402416005524939 0.0050349960776320431 -0.015475472208481179
leaf_weight=8.5400816276669484 3.535481050610545 18.01931240409613 6.5426587983965865 3.9397300258278873 5.8396456241607693 5.5616046711802465 27.653085470199585 6.5613516196608535 4.43196678161621 6.7526098117232314 4.7349335625767708 5.5124280452728245 8.193017803132534 5.9447086453437796
leaf_count=45 38 125 35 30 28 38 134 34 19 34 27 33 46 34
internal_value=-0.000196018 -0.0155152 -0.00964121 0.0043994 -0.00920638 0.00895237 0.0142638 0.0062207 -0.0110448 0.0353852 -0.0256998 -0.0010811 -0.0131756 0.0137009
internal_weight=121.763 28.0975 24.562 93.6652 23.4848 70.1803 55.4518 40.1591 14.7285 15.2927 10.2965 19.5451 13.7054 33.5978
internal_count=700 198 160 502 137 365 281 202 84 79 65 107 79 168
is_linear=0
shrinkage=0.05


Tree=38
num_leaves=15
num_cat=0
split_feature=17 1 30 0 57 34 1 0 1 4 7 4 26 1
split_gain=3.32598 4.24023 6.3101 4.16845 3.94356 4.57018 3.53103 3.46876 4.63207 2.73523 3.81278 3.28161 3.10781 2.68995
threshold=1.0000000180025095e-35 4146.0000000000009 1.0000000180025095e-35 8.5000000000000018 1.0000000180025095e-35 1.0000000180025095e-35 3515.0000000000005 15.500000000000002 804.00000000000011 24.500000000000004 1.0000000180025095e-35 29.500000000000004 1.0000000180025095e-35 7454.0000000000009
decision_type=2 2 2 2 2 2 2 2 2 2 2 2 2 2
left_child=1 3 -3 -1 5 -5 7 8 -6 -9 11 -11 -13 -2
right_child=13 2 -4 4 6 -7 -8 9 -10 10 -12 12 -14 -15
leaf_value=-0.039920886140298005 -0.045640594138535301 0.032482006692289393 -0.028604903495607736 -0.0069397514686812631 0.040683316118480306 -0.065532180187265088 -0.033781189838946089 0.058846237880432056 -0.013409950663868407 -0.036937287553459319 0.045405751998318526 -0.014449167305142771 0.042783747621755179 0.011349605163018091
leaf_weight=7.0588297322392455 6.7654122188687307 20.624855838716034 5.3173577934503546 19.965295799076561 5.0006020441651371 3.9937815368175498 4.7007900178432456 4.6877226531505611 18.97369646281004 4.03542132675648 7.4345930367708197 4.340908467769621 5.2293078675866127 2.9836978539824486
leaf_count=61 54 98 29 120 24 27 25 21 116 22 33 26 28 16
internal_value=-0.000194577 0.00225701 0.0199611 -0.00311968 0.000195356 -0.0167066 0.00763898 0.0115565 -0.00212708 0.0243073 0.0166121 0.000878265 0.0168237 -0.0281988
internal_weight=121.112 111.363 25.9422 85.4209 78.3621 23.9591 54.403 49.7023 23.9743 25.728 21.0402 13.6056 9.57022 9.74911
internal_count=700 630 127 503 442 147 295 270 140 130 109 76 54 70
is_linear=0
shrinkage=0.05


Tree=39
num_leaves=15
num_cat=0
split_feature=4 41 12 0 11 34 26 0 30 47 35 4 43 1
split_gain=3.23721 3.40478 3.54468 3.63408 3.67658 2.36081 3.05123 2.54838 4.28119 5.49506 4.53231 2.98955 3.13314 3.53005
threshold=61.500000000000007 1.0000000180025095e-35 1.0000000180025095e-35 8.5000000000000018 1.0000000180025095e-35 1.0000000180025095e-35 1.0000000180025095e-35 15.500000000000002 1.0000000180025095e-35 1.0000000180025095e-35 1.0000000180025095e-35 23.500000000000004 1.0000000180025095e-35 1593.0000000000002
decision_type=2 2 2 2 2 2 2 2 2 2 2 2 2 2
left_child=1 2 3 -1 5 7 -7 11 9 10 -9 -5 13 -13
right_child=-2 -3 -4 4 -6 6 -8 8 -10 -11 -12 12 -14 -15
leaf_value=-0.039487609643434646 -0.042384875374587981 0.042059513413585208 0.031970992087087896 -0.046468564830261003 0.042117537611252545 -0.048542895672742066 -0.0026877115155839069 0.018135130859924752 -0.023760607066308465 0.059484640643942571 -0.02267980724132844 0.033605845353007167 -0.031084520473433821 -0.013864311998221652
leaf_weight=6.3581839948892585 4.3809119611978522 4.929926522076129 7.8560423403978339 4.9473683238029507 4.8167221546173087 5.9723663404583904 9.2409078702330589 24.999936535954475 8.8488973006606084 5.8422611802816382 9.3439953774213773 7.5224702060222652 7.1275069639086714 8.1695575639605504
leaf_count=56 31 24 36 26 22 40 52 127 56 26 57 42 51 54
internal_value=-0.00019371 0.00140003 -0.000405059 -0.0028699 -0.000465509 -0.0026946 -0.0206894 0.000869876 0.00772359 0.0146563 0.00703056 -0.0112335 -0.00359435 0.00889201
internal_weight=120.357 115.976 111.046 103.19 96.832 92.0153 15.2133 76.802 49.0351 40.1862 34.3439 27.7669 22.8195 15.692
internal_count=700 669 645 609 553 531 92 439 266 210 184 173 147 96
is_linear=0
shrinkage=0.05


Tree=40
num_leaves=15
num_cat=0
split_feature=1 17 0 11 36 1 0 26 26 43 50 16 1 1
split_gain=3.09617 3.6246 3.18347 2.44614 2.48674 2.91848 2.30761 5.45064 4.06946 4.5275 3.77395 3.77647 3.49254 2.89121
threshold=10841.500000000002 1.0000000180025095e-35 8.5000000000000018 1.0000000180025095e-35 1.0000000180025095e-35 804.00000000000011 15.500000000000002 1.0000000180025095e-35 1.0000000180025095e-35 1.0000000180025095e-35 1.0000000180025095e-35 1.0000000180025095e-35 1593.0000000000002 3570.5000000000005
decision_type=2 2 2 2 2 2 2 2 2 2 2 2 2 2
left_child=1 2 -1 4 5 -4 8 -8 9 12 11 13 -7 -9
right_child=-2 -3 3 -5 -6 6 7 10 -10 -11 -12 -13 -14 -15
leaf_value=-0.031813870488922993 0.041672504532498954 -0.032105986479821998 0.032605495696599367 0.040831008808867433 0.036602303525509937 0.066050347573846438 -0.018127482586272777 0.011274587929548495 -0.029525036489727804 -0.042815263400249375 0.046586078095478288 0.037465762648750497 -0.0056701133241769362 -0.024902025062561353
leaf_weight=6.9713639393448821 4.2593166828155509 9.0542462542653066 6.2528954669833174 4.1257790178060523 4.7934463769197455 3.6825154051184672 20.131768934428692 13.332119710743433 17.146350763738155 2.7675989866256714 7.2304776757955542 7.3714253827929488 3.1489357277750969 9.4287319257855398
leaf_count=63 20 68 31 18 25 22 117 70 107 22 32 35 24 46
internal_value=-0.000191851 -0.00173653 0.000848206 0.00313867 0.00150663 -0.000352401 -0.00279877 0.00284544 -0.0149321 0.0111346 0.014146 0.00636181 0.032991 -0.00371165
internal_weight=119.697 115.438 106.383 99.412 95.2863 90.4928 84.2399 57.4945 26.7454 9.59905 37.3628 30.1323 6.83145 22.7609
internal_count=700 680 612 549 531 506 475 300 175 68 183 151 46 116
is_linear=0
shrinkage=0.05


Tree=41
num_leaves=15
num_cat=0
split_feature=4 41 12 0 11 34 55 45 1 1 23 47 56 10
split_gain=3.01988 2.99324 3.18351 3.18794 3.027 2.15577 3.00917 2.98209 2.22037 3.54328 3.408 2.71936 2.55452 3.06084
threshold=61.500000000000007 1.0000000180025095e-35 1.0000000180025095e-35 8.5000000000000018 1.0000000180025095e-35 1.0000000180025095e-35 1.0000000180025095e-35 1.0000000180025095e-35 7739.5000000000009 5263.5000000000009 1.0000000180025095e-35 1.0000000180025095e-35 1.0000000180025095e-35 1.0000000180025095e-35
decision_type=2 2 2 2 2 2 2 2 2 2 2 2 2 2
left_child=1 2 3 -1 5 8 -7 -8 9 10 11 12 13 -5
right_child=-2 -3 -4 4 -6 6 7 -9 -10 -11 -12 -13 -14 -15
leaf_value=-0.037848518522567709 -0.041442712948629147 0.039499506449361461 0.030448387029279451 -0.0012380646022722012 0.038194337783522728 -0.049480557650516732 0.019628570444040386 -0.03752294600690867 0.032486558612473772 -0.038138614356208411 0.050180013271609793 0.024047323780936009 0.023595896430321769 -0.029978053054865492
leaf_weight=6.0720591992139807 4.2765826396644107 4.9209545552730551 7.7894451096653929 32.337802246212959 4.8035548925399771 5.454119756817815 5.7821125984191895 3.7710963040590286 5.1803932636976233 6.0135907009243956 3.4712013602256766 9.3728060796856862 6.7044689059257498 12.983834415674208
leaf_count=56 31 24 36 164 22 32 34 26 24 37 19 47 39 109
internal_value=-0.000188862 0.00134986 -0.000360903 -0.00271494 -0.000489823 -0.00253022 -0.019849 -0.00293179 0.000886759 -0.00142265 0.001981 -0.000743947 -0.00521024 -0.00947155
internal_weight=118.934 114.657 109.736 101.947 95.875 91.0714 15.0073 9.55321 76.0641 70.8837 64.8701 61.3989 52.0261 45.3216
internal_count=700 669 645 609 553 531 92 60 439 415 378 359 312 273
is_linear=0
shrinkage=0.05


Tree=42
num_leaves=15
num_cat=0
split_feature=15 30 0 4 4 43 42 34 2 5 23 51 57 20
split_gain=2.84586 2.44882 4.29725 4.10527 5.18526 2.00206 1.98867 2.23668 3.79588 2.95446 3.98791 2.36907 5.26567 1.9412
threshold=1.0000000180025095e-35 1.0000000180025095e-35 27.500000000000004 28.500000000000004 35.500000000000007 1.0000000180025095e-35 1.0000000180025095e-35 1.0000000180025095e-35 3.5000000000000004 1.5000000000000002 1.0000000180025095e-35 1.0000000180025095e-35 1.0000000180025095e-35 1.0000000180025095e-35
decision_type=2 2 2 2 2 2 2 2 2 2 2 2 2 2
left_child=6 2 3 -2 -5 -6 7 9 -9 10 13 -11 -13 -1
right_child=1 -3 -4 4 5 -7 -8 8 -10 11 -12 12 -14 -15
leaf_value=0.0062279725404956014 -0.063500533810528628 -0.050654425050956214 0.037181852042460273 0.032930166062381264 -0.011765485186764488 -0.060076535830747228 -0.026901253924802068 -0.037314018266167585 0.015647495875581032 0.056652983072599777 0.05514820347033892 0.056429841335619159 -0.013673407112690114 -0.015400271910288263
leaf_weight=38.995554152876139 3.9861006364226439 3.9806752391159526 4.2556278854608527 5.3620919659733763 6.1371153667569143 3.2963304296135902 4.9161718413233748 7.3132116943597776 6.2957739755511284 5.025410696864129 3.5585633218288413 4.5598041117191315 6.4929289221763611 14.135005891323088
leaf_count=211 29 34 24 33 45 33 28 45 35 23 18 23 33 86
internal_value=-0.000187232 -0.0144419 -0.00818461 -0.0184639 -0.00633054 -0.0286468 0.00403142 0.00579198 -0.012813 0.0092715 0.00390602 0.0281894 0.0152477 0.000473933
internal_weight=118.31 27.0179 23.0373 18.7816 14.7955 9.43345 91.2924 86.3763 13.609 72.7673 56.6891 16.0781 11.0527 53.1306
internal_count=700 198 164 140 111 78 502 474 80 394 315 79 56 297
is_linear=0
shrinkage=0.05


Tree=43
num_leaves=15
num_cat=0
split_feature=17 1 30 57 0 6 4 1 34 1 4 7 1 1
split_gain=2.73236 3.34607 5.11244 3.65367 3.64269 4.39315 4.18086 3.6479 3.63334 3.30275 3.76328 2.94158 2.38452 5.16359
threshold=1.0000000180025095e-35 4146.0000000000009 1.0000000180025095e-35 1.0000000180025095e-35 15.500000000000002 1.5000000000000002 23.500000000000004 967.50000000000011 1.0000000180025095e-35 2317.0000000000005 30.500000000000004 1.0000000180025095e-35 5110.0000000000009 7653.5000000000009
decision_type=2 2 2 2 2 2 2 2 2 2 2 2 2 2
left_child=1 3 12 8 7 6 -6 -5 -1 11 -11 -8 -3 -14
right_child=-2 2 -4 4 5 -7 9 -9 -10 10 -12 -13 13 -15
leaf_value=-0.010742907906670096 -0.026330136898015138 0.053801396449279185 -0.026560406333611494 0.017309496199471319 0.058012682154277309 0.062226788075464216 -0.00038170080605186806 -0.020514414746652457 -0.063788508542302447 -0.05066329430868282 0.010318170862389521 0.054232074244995633 -0.011430178000797727 0.050098626283446801
leaf_weight=20.993862204253677 9.2122817635536176 6.6221116781234803 5.16078957915306 9.3719936423003691 3.6042088866233888 4.4605271592736235 6.9597088843584078 19.931145574897528 3.8146629408001891 5.1669225692749006 4.9571943134069443 3.8182041645050049 7.3127882629632932 6.3888850957155228
leaf_count=133 70 31 29 54 16 21 41 141 28 25 26 18 37 30
internal_value=-0.000186305 0.00203217 0.0178812 -0.00282956 0.00401221 0.016586 0.00827864 -0.00841723 -0.0188994 -0.000297174 -0.0208042 0.0189659 0.0291662 0.0172598
internal_weight=117.775 108.563 25.4846 83.0784 58.2699 28.9668 24.5062 29.3031 24.8085 20.902 10.1241 10.7779 20.3238 13.7017
internal_count=700 630 127 503 342 147 126 195 161 110 51 59 98 67
is_linear=0
shrinkage=0.05


Tree=44
num_leaves=15
num_cat=0
split_feature=4 1 17 20 43 12 0 0 30 4 4 38 3 2
split_gain=2.7401 2.57193 2.82608 2.77739 2.74219 4.29036 4.14303 2.42898 2.38078 4.26445 2.76969 3.42348 6.46389 2.3058
threshold=61.500000000000007 10841.500000000002 1.0000000180025095e-35 1.0000000180025095e-35 1.0000000180025095e-35 1.0000000180025095e-35 14.500000000000002 19.000000000000004 1.0000000180025095e-35 32.500000000000007 40.500000000000007 1.0000000180025095e-35 2.5000000000000004 3.5000000000000004
decision_type=2 2 2 2 2 2 2 2 2 2 2 2 2 2
left_child=1 2 3 4 5 8 -6 -8 10 -10 11 -1 -13 -14
right_child=-2 -3 -4 -5 6 -7 7 -9 9 -11 -12 12 13 -15
leaf_value=0.020440243936773517 -0.040172776624440652 0.042351907469205245 -0.028441243440631616 -0.011653560276374453 -0.040077743421287011 0.056428091857602627 0.036944292289592583 -0.010324942377792279 0.020101555021385959 -0.054957649061594886 0.033398392075171701 0.021687307886698665 -0.072802532194037275 -0.017950876788077875
leaf_weight=16.893177658319473 4.1323759220540515 3.687229022383689 8.143707908689974 26.711344718933105 6.9501025117933777 5.0798271447420111 4.602607384324072 6.6363193616271019 3.7640328183770171 3.8054884001612663 11.826771430671213 7.161757707595827 3.6947387307882309 3.9796154424548149
leaf_count=86 31 18 63 179 55 23 22 37 19 27 61 37 20 22
internal_value=-0.000182908 0.00128033 -0.00010586 0.00217645 0.00714212 0.012603 -0.00973246 0.00903293 0.00824858 -0.0176336 0.0127466 0.00504884 -0.0124766 -0.0443586
internal_weight=117.069 112.937 109.249 101.106 74.3944 56.2054 18.189 11.2389 51.1256 7.56952 43.5561 31.7293 14.8361 7.67435
internal_count=700 669 651 588 409 295 114 59 272 46 226 165 79 42
is_linear=0
shrinkage=0.05


Tree=45
num_leaves=15
num_cat=0
split_feature=4 41 12 0 11 36 4 0 16 1 43 49 1 5
split_gain=2.51789 2.47686 2.59421 2.84087 2.43928 1.9161 3.06559 7.96998 5.62121 4.47709 4.2913 1.85058 2.17527 1.48484
threshold=61.500000000000007 1.0000000180025095e-35 1.0000000180025095e-35 8.5000000000000018 1.0000000180025095e-35 1.0000000180025095e-35 28.500000000000004 31.500000000000004 1.0000000180025095e-35 1287.5000000000002 1.0000000180025095e-35 1.0000000180025095e-35 2777.0000000000005 1.5000000000000002
decision_type=2 2 2 2 2 2 2 2 2 2 2 2 2 2
left_child=1 2 3 -1 5 6 7 8 10 13 -5 12 -11 -8
right_child=-2 -3 -4 4 -6 -7 9 -9 -10 11 -12 -13 -14 -15
leaf_value=-0.036527640264169624 -0.038864527939507905 0.036012549826565619 0.027725914413925658 -0.031545389502390088 0.034616052284663065 0.027727872791950898 0.038951734145297873 0.064864008599477954 0.036114925995388091 0.018892085905772925 0.017386519605762176 -0.024210381771769682 -0.026817573261973111 -0.0032471725876673549
leaf_weight=5.7837159447371951 4.0597812049090853 4.8917412459850302 7.6337719261646262 14.013167038559919 4.7176334410905829 5.0222844555973998 4.9935336634516698 5.171377256512641 6.9455470889806739 6.2262189462780935 6.5867955833673468 32.287908457219601 4.4724063277244568 3.5783922672271729
leaf_count=56 31 24 36 81 22 27 27 24 34 32 36 220 24 26
internal_value=-0.000180866 0.00121729 -0.000367044 -0.00251592 -0.000423552 -0.00227471 -0.00406268 0.0079086 -0.00278417 -0.0116592 -0.0158995 -0.0182386 -0.000216179 0.0213356
internal_weight=116.384 112.324 107.433 99.799 94.0153 89.2976 84.2753 32.7169 27.5455 51.5585 20.6 42.9865 10.6986 8.57193
internal_count=700 669 645 609 553 531 504 175 151 329 117 276 56 53
is_linear=0
shrinkage=0.05


Tree=46
num_leaves=15
num_cat=0
split_feature=15 30 0 4 4 42 1 5 20 34 43 2 1 1
split_gain=2.35162 2.24431 3.66329 3.90042 4.65736 1.86941 2.07055 3.18481 4.71543 2.53113 2.33024 3.67362 2.58905 2.63977
threshold=1.0000000180025095e-35 1.0000000180025095e-35 27.500000000000004 28.500000000000004 35.500000000000007 1.0000000180025095e-35 804.00000000000011 1.5000000000000002 1.0000000180025095e-35 1.0000000180025095e-35 1.0000000180025095e-35 3.5000000000000004 2217.5000000000005 2681.5000000000005
decision_type=2 2 2 2 2 2 2 2 2 2 2 2 2 2
left_child=5 2 3 -2 -5 6 -1 8 10 -9 12 -12 -8 -14
right_child=1 -3 -4 4 -6 -7 7 9 -10 -11 11 -13 13 -15
leaf_value=0.032696879103864492 -0.062673577518150267 -0.049302912690435449 0.034337730596285539 0.03158705323325281 -0.027267041347638622 -0.026623395358282079 0.030776758199962308 0.030284458177640635 -0.028140766367504205 -0.015567727320249705 -0.04167550137571488 0.018063718043283227 -0.037185093075121509 0.0090101255163485376
leaf_weight=6.4168292582035056 3.7423971295356848 3.7275673598051062 4.2574017345905295 5.3525182604789725 9.0364376679062826 4.8192124888300887 11.543719034641979 15.029548063874246 13.787284359335898 3.7634395807981482 5.878826078027485 4.5770448409020901 3.6529530584812191 20.156988065689802
leaf_count=35 29 34 24 33 78 28 62 75 88 24 36 26 22 106
internal_value=-0.000178292 -0.0133812 -0.00740044 -0.0172009 -0.00537403 0.00366893 0.00539031 0.00315505 -0.00250432 0.0211022 0.00521148 -0.0155247 0.0113442 0.00192279
internal_weight=115.742 26.1163 22.3888 18.1314 14.389 89.6258 84.8066 78.3898 59.5968 18.793 45.8095 10.4559 35.3537 23.8099
internal_count=700 198 164 140 111 502 474 439 340 99 252 62 190 128
is_linear=0
shrinkage=0.05


Tree=47
num_leaves=15
num_cat=0
split_feature=1 17 0 37 50 4 0 4 7 42 1 56 6 58
split_gain=2.33354 2.73606 2.46399 2.14158 1.97838 2.75329 2.11374 2.22951 1.84413 1.74721 2.42807 1.67701 2.22466 7.40374
threshold=10841.500000000002 1.0000000180025095e-35 8.5000000000000018 1.0000000180025095e-35 1.0000000180025095e-35 33.500000000000007 19.000000000000004 23.500000000000004 1.0000000180025095e-35 1.0000000180025095e-35 778.50000000000011 1.0000000180025095e-35 1.5000000000000002 1.0000000180025095e-35
decision_type=2 2 2 2 2 2 2 2 2 2 2 2 2 2
left_child=1 2 3 -1 9 6 7 -6 -3 10 -4 12 -12 -14
right_child=-2 8 4 -5 5 -7 -8 -9 -10 -11 11 -13 13 -15
leaf_value=-0.056627127294104275 0.037388020014010447 -0.044107826388502989 0.036535995852767227 0.0017832246048582639 -0.015979675428089476 -0.015719040806205703 0.048787950967270663 0.036296881542765898 0.0071635805483614718 -0.031425077274770861 -0.0093552886023133604 0.01635816395069838 0.051098326907423122 -0.039234267815987975
leaf_weight=3.3852515816688529 3.9906620085239402 5.9258575513958913 4.4949756413698188 2.9253075607120991 4.0004591569304484 4.8671350702643386 6.5619237571954718 4.1609068438410759 2.49105054885149 4.4229028895497313 47.184830375015736 11.110374614596365 6.0074710696935636 3.6443452686071396
leaf_count=41 20 52 23 22 20 28 31 20 16 25 292 57 32 21
internal_value=-0.000178227 -0.00152658 0.000718156 -0.0295506 0.00269848 0.0168826 0.0276599 0.0106725 -0.0289336 -0.000916615 0.000946061 -0.00140836 -0.00488134 0.0169904
internal_weight=115.173 111.183 102.766 6.31056 96.4553 19.5904 14.7233 8.16137 8.41691 76.8649 72.442 67.947 56.8366 9.65182
internal_count=700 680 612 63 549 99 71 40 68 450 425 402 345 53
is_linear=0
shrinkage=0.05


Tree=48
num_leaves=15
num_cat=0
split_feature=4 41 32 3 13 0 47 16 28 10 0 1 1 1
split_gain=2.29521 2.15462 2.2872 3.31931 3.35851 2.61607 2.38834 3.35628 1.93146 1.50062 2.00585 2.46897 3.45794 2.70705
threshold=61.500000000000007 1.0000000180025095e-35 1.0000000180025095e-35 3.5000000000000004 1.0000000180025095e-35 8.5000000000000018 1.0000000180025095e-35 1.0000000180025095e-35 1.0000000180025095e-35 1.0000000180025095e-35 43.500000000000007 1287.5000000000002 4189.5000000000009 3492.0000000000005
decision_type=2 2 2 2 2 2 2 2 2 2 2 2 2 2
left_child=1 2 5 4 -4 -1 8 -8 9 10 11 -7 13 -13
right_child=-2 -3 3 -5 -6 6 7 -9 -10 -11 -12 12 -14 -15
leaf_value=-0.041599026636094147 -0.037707475191756358 0.033656543511915347 0.032313272116666299 0.047200482508298086 -0.017059081930818645 0.021424441434976564 0.00053141122494423487 0.053133849202806817 -0.040628868813498309 -0.015994371620009315 0.032388962933314253 -0.011556528394273256 0.015620124635202343 -0.056801884372756489
leaf_weight=4.3689500838518134 3.9334443844854823 4.8758215159177771 5.6308319345116624 5.6807283461093894 8.8708543479442596 8.5521381050348264 9.8544360250234586 4.3802994042634955 3.7641905993223181 17.953306302428246 4.5985545367002478 18.093485280871395 9.985366262495516 4.044942468404769
leaf_count=48 31 24 28 33 49 44 52 20 27 157 22 97 48 20
internal_value=-0.000174819 0.00115936 -0.000338587 0.0148027 0.00211161 -0.00390873 -0.00188148 0.0167182 -0.00583361 -0.00376211 0.00108851 -0.00245012 -0.00880611 -0.0198234
internal_weight=114.587 110.654 105.778 20.1824 14.5017 85.5957 81.2267 14.2347 66.992 63.2278 45.2745 40.6759 32.1238 22.1384
internal_count=700 669 645 110 77 535 487 72 415 388 231 209 165 117
is_linear=0
shrinkage=0.05


Tree=49
num_leaves=15
num_cat=0
split_feature=15 30 0 4 4 43 42 34 2 5 23 4 1 26
split_gain=2.11684 2.10602 3.29195 3.71211 4.10133 1.912 1.60636 1.95102 3.32748 2.04381 3.31799 2.29334 2.67479 1.56349
threshold=1.0000000180025095e-35 1.0000000180025095e-35 27.500000000000004 28.500000000000004 35.500000000000007 1.0000000180025095e-35 1.0000000180025095e-35 1.0000000180025095e-35 3.5000000000000004 1.5000000000000002 1.0000000180025095e-35 42.500000000000007 2630.0000000000005 1.0000000180025095e-35
decision_type=2 2 2 2 2 2 2 2 2 2 2 2 2 2
left_child=6 2 3 -2 -5 -6 7 9 -9 10 13 12 -11 -1
right_child=1 -3 -4 4 5 -7 -8 8 -10 11 -12 -13 -14 -15
leaf_value=-0.011282356435901392 -0.062144517491657419 -0.048531876380153008 0.032327936583891527 0.029347441230910182 -0.0096438852554164099 -0.059177158348766606 -0.024972356548601415 -0.036282912914318718 0.014287118921925902 -0.01526809895231002 0.051047642467650256 0.058848480881435385 0.032857302115329674 0.0069957153895865449
leaf_weight=17.960077866911888 3.5688027665019133 3.5595521330833426 4.2707393690943709 5.3675608783960334 5.8480033278465253 2.9214482456445694 4.6949238255619994 6.9654623791575414 6.1029883101582527 4.7936890795826894 3.4830834642052642 3.6725712195038787 7.2597906589508057 33.564333632588387
leaf_count=119 29 34 24 33 45 33 28 45 35 25 18 19 35 178
internal_value=-0.000171461 -0.0128534 -0.00707452 -0.0165786 -0.00507578 -0.0261454 0.00348795 0.00508241 -0.0126666 0.00836166 0.00381726 0.0242573 0.0137177 0.000624452
internal_weight=114.033 25.5361 21.9766 17.7058 14.137 8.76945 88.4969 83.802 13.0685 70.7335 55.0075 15.7261 12.0535 51.5244
internal_count=700 198 164 140 111 78 502 474 80 394 315 79 60 297
is_linear=0
shrinkage=0.05


Tree=50
num_leaves=15
num_cat=0
split_feature=1 17 0 32 7 50 4 32 42 1 4 1 57 6
split_gain=2.08622 2.48838 2.10964 2.13715 1.78108 1.72941 2.44135 1.9927 1.53534 2.13194 1.44972 2.35887 2.04155 3.85551
threshold=10841.500000000002 1.0000000180025095e-35 8.5000000000000018 1.0000000180025095e-35 1.0000000180025095e-35 1.0000000180025095e-35 33.500000000000007 1.0000000180025095e-35 1.0000000180025095e-35 778.50000000000011 27.500000000000004 1344.5000000000002 1.0000000180025095e-35 1.5000000000000002
decision_type=2 2 2 2 2 2 2 2 2 2 2 2 2 2
left_child=1 2 3 -1 -3 8 7 -7 9 -4 11 -11 -12 -14
right_child=-2 4 5 -5 -6 6 -8 -9 -10 10 12 -13 13 -15
leaf_value=-0.048662654990326557 0.035806885298121004 -0.043224160919590367 0.03432893980876818 0.015487690355389137 0.007622173434990197 0.012783493791553309 -0.015139616497328874 0.051820047732068997 -0.02989945815437195 -0.05025852803247044 -0.0085622986952697527 -0.004347501639653216 0.001723864466495273 0.045640795975342117
leaf_weight=4.0594837777316561 3.891334354877471 5.7331869155168516 4.4567037522792807 1.9087650887668131 2.4618192315101624 9.6700378060340899 4.7941294386982909 4.9388855248689643 4.3064662069082251 3.5636542588472393 22.190872546285391 13.017644882202147 22.101471744477752 6.4577769935131064
leaf_count=51 20 52 23 12 16 47 28 24 25 23 140 70 135 34
internal_value=-0.000170472 -0.00144713 0.000693374 -0.0281461 -0.0279497 0.00249573 0.0158206 0.0259807 -0.000901933 0.000837587 -0.00137922 -0.0142147 0.00281444 0.0116543
internal_weight=113.552 109.661 101.466 5.96825 8.19501 95.4976 19.4031 14.6089 76.0946 71.7881 67.3314 16.5813 50.7501 28.5592
internal_count=700 680 612 63 68 549 99 71 450 425 402 93 309 169
is_linear=0
shrinkage=0.05


Tree=51
num_leaves=15
num_cat=0
split_feature=4 34 0 1 41 43 0 12 37 26 1 2 26 30
split_gain=2.10368 2.02355 2.34193 4.25218 2.34186 2.0375 3.63722 3.17287 2.60588 2.73994 2.27921 2.46145 4.88898 3.79601
threshold=61.500000000000007 1.0000000180025095e-35 37.500000000000007 1861.0000000000002 1.0000000180025095e-35 1.0000000180025095e-35 14.500000000000002 1.0000000180025095e-35 1.0000000180025095e-35 1.0000000180025095e-35 8079.0000000000009 2.5000000000000004 1.0000000180025095e-35 1.0000000180025095e-35
decision_type=2 2 2 2 2 2 2 2 2 2 2 2 2 2
left_child=1 4 3 -3 5 7 -7 10 9 -8 11 12 -1 -13
right_child=-2 2 -4 -5 -6 6 8 -9 -10 -11 -12 13 -14 -15
leaf_value=0.021537724483304765 -0.036639603245712735 0.0104922468833478 0.018164502257592762 -0.047248291708564628 0.040695350319786355 -0.033613765971561231 -0.04446470862716817 0.05092467048300852 0.036124297824332144 0.014164088739797132 0.037918854000314785 0.01616123876095164 -0.031706685159670449 -0.025801133507833991
leaf_weight=6.5900861881673345 3.8199404068291178 5.2393954209983375 4.1958163678646079 8.1457872539758664 4.1703085005283347 9.7493862919509429 3.4215899482369405 3.8435421958565703 4.7837088033556929 4.7721267566084862 4.601438231766223 30.711490962654352 12.468116145581007 6.5365782529115668
leaf_count=46 31 39 20 58 20 78 24 19 24 26 23 171 73 48
internal_value=-0.000166992 0.00110852 -0.0144296 -0.0246468 0.00408921 0.0023441 -0.0105361 0.00686488 0.00680111 -0.0103185 0.00408452 0.00131952 -0.0132954 0.00879736
internal_weight=113.049 109.229 17.581 13.3852 91.6484 87.4781 22.7268 64.7513 12.9774 8.19372 60.9077 56.3063 19.0582 37.2481
internal_count=700 669 117 97 552 532 152 380 74 50 361 338 119 219
is_linear=0
shrinkage=0.05


Tree=52
num_leaves=15
num_cat=0
split_feature=4 34 4 41 0 44 1 47 46 1 4 45 1 1
split_gain=1.93071 1.8421 2.29429 2.11414 1.86261 3.23682 2.59905 2.44794 2.10262 3.12303 2.53539 2.02134 2.89978 5.59806
threshold=61.500000000000007 1.0000000180025095e-35 29.500000000000004 1.0000000180025095e-35 15.500000000000002 1.0000000180025095e-35 1300.5000000000002 1.0000000180025095e-35 1.0000000180025095e-35 967.50000000000011 26.500000000000004 1.0000000180025095e-35 2469.5000000000005 1812.5000000000002
decision_type=2 2 2 2 2 2 2 2 2 2 2 2 2 2
left_child=1 3 -3 4 5 8 -7 11 9 -1 -11 12 13 -6
right_child=-2 2 -4 -5 7 6 -8 -9 -10 10 -12 -13 -14 -15
leaf_value=0.0089860754606877861 -0.035403926963463339 0.0088315852235477822 -0.028365688353173803 0.038683586630373051 -0.022519261663108109 -0.014841184996389426 0.035400249969943794 0.030679778504976843 0.018458185445240291 -0.0088688387906872661 -0.052815154433252159 0.01648920717510843 -0.017522016023550333 0.054508947188246427
leaf_weight=5.1795070655644002 3.7572248205542556 6.79911966249347 10.620930071920155 4.1678828075528136 4.6169825941324252 4.2592856958508474 6.5062000304460526 9.7362620979547483 3.4001080356538287 5.2312799096107474 8.8079376444220525 16.986859168857336 17.584281198680401 4.8224048689007759
leaf_count=32 31 41 76 20 30 25 39 47 26 33 78 99 98 25
internal_value=-0.000165403 0.00105241 -0.0138474 0.00389533 0.00223125 -0.00704452 0.0155226 0.0079928 -0.0177854 -0.0241975 -0.0364399 0.00297386 -0.00552178 0.016833
internal_weight=112.476 108.719 17.42 91.299 87.1311 33.3843 10.7655 53.7468 22.6188 19.2187 14.0392 44.0105 27.0237 9.43939
internal_count=700 669 117 552 532 233 64 299 169 143 111 252 153 55
is_linear=0
shrinkage=0.05


Tree=53
num_leaves=15
num_cat=0
split_feature=17 1 1 30 57 34 0 6 55 1 43 16 4 7
split_gain=1.81601 2.25664 2.11502 4.31087 2.8913 3.26016 2.62631 3.468 2.86707 2.79567 5.00134 2.75882 2.68429 2.85602
threshold=1.0000000180025095e-35 7454.0000000000009 4146.0000000000009 1.0000000180025095e-35 1.0000000180025095e-35 1.0000000180025095e-35 15.500000000000002 1.5000000000000002 1.0000000180025095e-35 1593.0000000000002 1.0000000180025095e-35 1.0000000180025095e-35 24.500000000000004 1.0000000180025095e-35
decision_type=2 2 2 2 2 2 2 2 2 2 2 2 2 2
left_child=2 -2 4 -4 5 -1 9 8 -8 10 11 -6 -10 -14
right_child=1 -3 3 -5 6 -7 7 -9 12 -11 -12 -13 13 -15
leaf_value=-0.0093305453623935084 -0.040852497881033421 0.014365020358983 0.024965801212428956 -0.027042754567869878 0.0064819718272942613 -0.061962343095064681 -0.020745377495169325 0.055313346499137751 0.055597957028301351 -0.029871965722029548 -0.028397082396383784 0.058292940463246762 -0.009309401491029384 0.039083894849728913
leaf_weight=19.941159471869472 5.5931263454258424 2.7650683373212814 19.662542339414362 4.9968812316656104 7.2025088891387039 3.4515298940241328 6.6868983656168046 4.4054188132286063 3.6953918337821987 9.0719554312527162 7.2242814525961867 3.9941530898213387 8.7846620529890043 4.6693585813045493
leaf_count=133 54 16 98 29 46 28 34 21 17 71 58 20 53 22
internal_value=-0.000164404 -0.0225854 0.00164121 0.014427 -0.00234339 -0.0170962 0.00384861 0.0145575 0.00702503 -0.00715197 0.00403719 0.0249643 0.0178533 0.007486
internal_weight=112.145 8.35819 103.787 24.6594 79.1273 23.3927 55.7346 28.2417 23.8363 27.4929 18.4209 11.1967 17.1494 13.454
internal_count=700 70 630 127 503 161 342 147 126 195 124 66 92 75
is_linear=0
shrinkage=0.05


Tree=54
num_leaves=15
num_cat=0
split_feature=4 1 17 20 10 1 43 12 0 0 30 4 4 3
split_gain=1.75456 1.63186 1.92946 1.91866 2.08623 1.99476 1.93242 3.37082 3.20001 2.78898 2.08147 3.58703 2.18386 2.93098
threshold=61.500000000000007 10841.500000000002 1.0000000180025095e-35 1.0000000180025095e-35 1.0000000180025095e-35 3560.5000000000005 1.0000000180025095e-35 1.0000000180025095e-35 15.500000000000002 19.000000000000004 1.0000000180025095e-35 32.500000000000007 40.500000000000007 2.5000000000000004
decision_type=2 2 2 2 2 2 2 2 2 2 2 2 2 2
left_child=1 2 3 6 -5 -6 7 10 -8 -10 12 -12 13 -1
right_child=-2 -3 -4 4 5 -7 8 -9 9 -11 11 -13 -14 -15
leaf_value=0.020658441123094475 -0.034165188002108132 0.035285314346423895 -0.024714432429112379 0.00018143864588765016 -0.043093327276297701 0.014699801163227997 -0.035037870425056454 0.050590284886431913 0.042837417625488303 -0.011070351150485899 0.016262374535110664 -0.053891029242973891 0.029414271298106531 -0.010327346138241107
leaf_weight=14.167765621095898 3.669040370732545 3.361336685717105 7.4026033394038668 16.867515172809362 6.6466447338461894 1.9256263971328733 6.8878177143633392 4.7982601523399344 3.8245244026184064 6.4383444860577583 3.7343065589666358 3.5584328770637512 11.621777832508085 16.543204054236412
leaf_count=73 31 18 63 94 71 14 59 23 18 37 19 27 61 92
internal_value=-0.000162816 0.00099471 -0.000109156 0.00176833 -0.010026 -0.030111 0.00596041 0.0105724 -0.00867466 0.00901873 0.00670308 -0.0179684 0.0109533 0.0039672
internal_weight=111.447 107.778 104.417 97.0142 25.4398 8.57227 71.5744 54.4237 17.1507 10.2629 49.6255 7.29274 42.3327 30.711
internal_count=700 669 651 588 179 85 409 295 114 55 272 46 226 165
is_linear=0
shrinkage=0.05


Tree=55
num_leaves=15
num_cat=0
split_feature=15 30 0 4 4 43 42 1 5 20 1 0 43 2
split_gain=1.68252 1.92868 2.88188 3.5418 3.49929 1.73633 1.33933 1.72847 2.43609 4.06519 2.25588 3.81707 2.25188 1.76343
threshold=1.0000000180025095e-35 1.0000000180025095e-35 27.500000000000004 28.500000000000004 35.500000000000007 1.0000000180025095e-35 1.0000000180025095e-35 804.00000000000011 1.5000000000000002 1.0000000180025095e-35 2275.5000000000005 25.000000000000004 1.0000000180025095e-35 2.5000000000000004
decision_type=2 2 2 2 2 2 2 2 2 2 2 2 2 2
left_child=6 2 3 -2 -5 -6 7 -1 9 13 -10 -12 -11 -9
right_child=1 -3 -4 4 5 -7 -8 8 10 12 11 -13 -14 -15
leaf_value=0.029943440081378177 -0.061536165299655304 -0.047357245886118782 0.030693786606641002 0.02744563353763196 -0.0090422883918689755 -0.058471501525646223 -0.023340289037092347 -0.0072537815920043049 -0.0070087747179425862 -0.041027948769742958 0.059750395923937751 0.004051332497076115 0.0033152585930625242 0.013057555471561347
leaf_weight=6.2104518525302401 3.3421980552375414 3.2882660217583171 4.2352670058608046 5.3437560684978953 5.6976166218519193 2.5816924870014191 4.5309639312326899 18.128815677016973 5.8973296210169819 8.9932739548385126 5.8752904236316663 6.4556707888841629 4.2002270966768256 26.029274269938469
leaf_count=35 29 34 24 33 45 33 28 104 36 59 30 33 29 148
internal_value=-0.000160629 -0.011728 -0.00620182 -0.0154126 -0.00409689 -0.0244555 0.00312096 0.00458685 0.00250328 -0.00255746 0.0184259 0.0305901 -0.026911 0.00471887
internal_weight=110.81 24.4888 21.2005 16.9653 13.6231 8.27931 86.3213 81.7903 75.5799 57.3516 18.2283 12.331 13.1935 44.1581
internal_count=700 198 164 140 111 78 502 474 439 340 99 63 88 252
is_linear=0
shrinkage=0.05


Tree=56
num_leaves=15
num_cat=0
split_feature=32 3 13 0 4 41 47 16 28 56 51 52 2 4
split_gain=1.62325 2.59129 2.67805 1.76861 1.85601 2.09571 1.89824 2.78509 1.67746 1.28233 3.31853 2.93108 2.68407 2.46744
threshold=1.0000000180025095e-35 3.5000000000000004 1.0000000180025095e-35 8.5000000000000018 61.500000000000007 1.0000000180025095e-35 1.0000000180025095e-35 1.0000000180025095e-35 1.0000000180025095e-35 1.0000000180025095e-35 1.0000000180025095e-35 1.0000000180025095e-35 1.5000000000000002 22.500000000000004
decision_type=2 2 2 2 2 2 2 2 2 2 2 2 2 2
left_child=3 2 -2 -1 5 6 8 -8 9 11 -11 12 -5 -14
right_child=1 -3 -4 4 -6 -7 7 -9 -10 10 -12 -13 13 -15
